0.29383717279974225,0.12167240046852781,0.2067576218655768,0.24830077744303847,-0.12362537859322704,-0.2643776574704711,0.28091253163953633,-0.024981525292797922,-0.4457971343412478,0.06224229572860477,
0.3860172737114891,0.4511678309770543,0.4911356248340214,-0.2992165551404912,-0.08285465668910906,0.20005300190002526,-0.14082163529463101,-0.470414993415222,0.10205575844493946,0.13350961961797161,
-0.20444643189795922,0.3159389342856967,0.1669868182601142,0.13191112692932605,0.17297739803527795,0.38668996969674013,0.02178086569302609,0.09009526779165884,0.3440125984435653,0.3975999999520862,
-0.04523017437761774,0.11940832997222095,-0.016594097952564328,-0.20735177506575464,-0.31779030093580396,0.1892000808415012,0.53171104851721,-0.466399790387228,0.28483259177709214,0.4201147193207287,
0.12783977193488058,0.43412323344291764,-0.006343235378927383,0.23077413742920655,-0.33059042138127065,0.4879491026205517,-0.186477019786562,-0.3810318927249521,-0.27912013506789757,-0.32870305327306476,
0.20804596740641695,0.27618370034545314,0.08948681436266813,0.44757661513582636,0.24446716933540003,-0.1346766064500461,0.3557603064808785,-0.28292715987889533,-0.212231304138662,-0.05181243238877784,
0.3458885916059559,-0.1848637575137273,-0.006372111520495387,0.4381043313101771,-0.015472553289037873,0.4590847716994296,-0.40282676132504597,0.0246052943350272,-0.0859321315177025,0.20986011626371015,
0.11676718830261697,-0.36446469407382937,-0.3964991041057284,0.10947970499196041,-0.25241395147191237,0.33595564125195304,-0.13895017639400828,-0.2899058920339244,-0.2809951953101114,0.32365465432927215,
-0.10492561457664171,0.32637289292399135,-0.3498503782341262,0.47541828728291563,0.47500422362166894,-0.02801488612617919,-0.22460894739496398,-0.35027301902922126,-0.3367345459208765,-0.3742484405111007,
-0.052966544083651354,-0.11671547995093594,0.0018298690710483526,-0.3327398029240128,0.43144374562067445,0.521852348050528,-0.33890890846154287,0.07633770785728007,0.09733515390138403,0.43245188901107184,
0.13314880291340073,-0.09777928382614273,-0.19413188370102671,-0.3600957091610559,0.0884186487717125,-0.18010423537482412,-0.29984106498696717,-0.18099712853959485,0.4824876819525967,-0.22087326113457897,
0.29124029048208616,0.1590823887675251,-0.4720816231226217,0.1882264806858168,-0.3813179061350521,0.1918527784738675,0.4035024413794412,-0.03598936621727936,-0.32184119226617586,-0.438721815605381,
-0.3631821677012833,-0.2436226365305187,0.15218244434192726,0.3313950550712613,-0.15110427861924322,-0.31451214760772506,0.14188854109268795,0.293175808482104,0.4510280499888879,-0.19157442260005797,
-0.49007914215616666,-0.31917452820945036,0.3762031806435633,0.31908596529912076,0.43792829048047094,0.2784504484834622,-0.15613730116887994,0.25831546916001297,-0.009031642565043206,0.045400513071196434,
0.48952153886894845,-0.2778526744764331,-0.4167989247569344,-0.3664754162477623,0.09554005726863112,0.4638898104533855,-0.06476449492394079,-0.12858165785751346,0.3208290686088842,-0.39336884626703966,
0.2270374475733838,-0.20674811368657553,-0.485908147439884,-0.22229442311177255,-0.2919446277585081,0.0692652311995675,0.38523011837884585,0.3472044540145138,-0.13704734936187088,-0.2531523953884147,
-0.4975812907857397,-0.23376879761442892,0.018465126652289235,-0.4198228011131629,0.40140824312195234,0.07673466207013986,-0.07029193409235028,0.3575857726213223,-0.008849611086536827,-0.17444121531369358,
0.48345809814794194,-0.48452338288696956,-0.2984943861950359,0.13535575914093925,0.4158445695456534,0.3785170019541353,0.10535743023194687,-0.06178637462638922,0.14324570307170023,0.18109945454933066,
-0.02769572396856974,0.24432006904795986,0.35703633094919585,0.09738703834544708,-0.4839079473800197,-0.0857725544815168,0.1908738538190259,0.011612378128767996,0.02885931878824756,0.1857832340683401,
0.4770056702321483,0.04643627020719995,0.04568616559918088,-0.3462367364825726,-0.200575903458656,0.021371203828533296,-0.2960989409823889,0.43568413448208826,0.5076199750440624,0.1617557832005963,
0.3719784775975561,-0.2325476739674881,0.10423910904142586,0.1898105723901058,-0.06795070446686646,-0.2781337307359544,-0.35067187418942447,0.2483306336398502,0.4647058843429186,0.17462345830917092,
-0.35218093785763405,0.40680435904883216,-0.4952680549703426,0.3720631565176863,-0.4135226432749827,-0.10671269489852486,-0.15058392258316886,-0.22866171018533032,-0.0228156115219561,-0.34563958524147265,
0.2457805213337942,-0.2009939653215574,0.09606724871482403,-0.42410980712230506,0.46003337933920363,-0.01316456396489508,0.2716212110676852,-0.2119798559957104,0.22515105066927776,-0.1740948398408107,
-0.10014609229207322,0.26464293551127904,-0.09629577168550604,0.45298472082285585,0.055980185552580504,-0.341895291003588,0.46996842869589417,-0.3398712434937274,-0.41001778432074526,-0.057308123272800576,
0.28352957534556195,-0.22518918719722772,-0.07563736150649511,0.10964821827974648,-0.22708836963763754,0.19526722056823584,-0.35664746044536877,0.34026878996571036,0.14994193760105348,0.3561058722658782,
0.3304573544070453,-0.10016331723743008,-0.3736729620420893,-0.42088225152300895,0.2548446088842786,0.3713027159979513,-0.479116998127991,-0.29509469316607584,0.3269114303228805,-0.07521736418996183,
0.037520075796857545,0.47587723123586373,0.41196031649162296,0.1324668284214209,0.22545549184909458,0.3915638072747802,-0.011695887541607641,0.34183814647671773,-0.4357210075045652,0.4409404210049836,
-0.37396586380759306,-0.19970825631710987,0.34017427136674216,-0.13858495803527823,-0.09160805297052999,0.20860136719650518,0.2921405818718043,-0.27601513170034675,-0.10927066847777413,0.2753830306979701,
0.3225338272197979,-0.002657786228432801,-0.21323286274576947,-0.15590254923849683,0.2338028905344936,0.34256293705336416,-0.08478426549303653,0.25007169695770126,0.38127281127483514,-0.22496696648342107,
0.04429074297496274,0.3293431755239341,-0.13708608502319686,-0.09031937059088839,0.2879438313163611,-0.4220037792127897,0.0236417890951064,-0.4524091533461539,0.09200294641009615,-0.2949460296280381,
-0.3712213219427775,0.2899485065799056,-0.09335903932327927,-0.21891916052383995,-0.04210693243119142,0.09885366713856793,-0.4881193062566174,0.2106727426289031,-0.24107022203981696,-0.1153613299872469,
0.1916984434430684,0.22739033127235875,-0.29913363967757606,-0.08131660286506398,-0.15401762478556555,-0.22328299371262506,-0.0844486588902959,-0.24313704213321652,0.2818483388016737,0.3404497443242743,
0.12543777447800117,-0.48504729233522975,-0.12754296509958815,0.3281149192668909,0.1022912703150526,0.3162206806328457,0.11742281878591973,-0.4943511802725621,0.11506842512116423,-0.22408010778008292,
0.10250954451205543,-0.11622324160694111,-0.11375099184363362,0.2890229189370364,-0.06085760644949553,0.08939709443937173,0.03831105461660848,-0.3544737858541097,-0.1231328271270886,-0.2151539998243779,
0.41501756305993537,-0.02702856743572859,-0.426352817009163,-0.08629523703255117,0.039723587787296503,0.12960946367262816,0.32875242817787,0.2869761586293383,0.05135986090308539,-0.33455650556742683,
-0.22883694456583134,0.47642948825646814,-0.40973693692479174,0.12038704219436763,-0.4830331484292676,0.49629531822586515,0.0044237731481199475,0.07916655387706478,0.0718907072510624,-0.0676164922023943,
0.03910126568594512,0.14999029505738817,-0.48288762822444653,-0.37984456111987347,-0.252005348898247,-0.289318857691686,0.12188462896012596,-0.035186630693892405,-0.3706444182894788,0.14660081329083224,
0.33795231189123937,0.45976332497460437,-0.2330833747291585,-0.15700167192237,-0.3761014780179444,0.2626331614417367,-0.2797037203446922,-0.4716726479067866,-0.01659562454424343,-0.12645423254776872,
-0.009292918063076968,-0.13253339685731383,-0.2631926065743786,0.22645780800765464,0.3753632637855621,0.20370583542269022,-0.16737499618353452,0.3594865698004075,0.27540828792465255,0.13671413210831446,
-0.1414039041475864,-0.4166559832918053,-0.17598340908096413,-0.38303334323507887,-0.20767846339617244,0.019042113589256743,-0.4386466789146944,-0.0728773263072477,0.381087446126102,-0.37897964404389395,
0.2203455361260684,-0.24778212542809952,0.37714702648268617,0.2504632519017206,0.4462056986640198,-0.25277116959115137,0.32925483658819643,-0.47398012884681,0.3160878271619811,0.4756871346025646,
0.45757963723590545,0.27888758847946893,0.0033271886829943087,0.017273634843742114,0.31569324302647916,-0.26348865224857365,-0.30707294161771315,-0.26502098222920845,-0.3299973756822677,-0.4723931316283493,
-0.30201236394913367,-0.1132900770974778,0.37906232754823194,0.45640316348935167,0.423668554492488,0.10654878721542639,0.07722728704886234,-0.3640750480682966,0.2071835870147823,0.045422538689009695,
-0.1849968769914107,-0.5185222132256121,-0.12054880398140648,0.20296024969644738,-0.24964160472744357,-0.40892993390404164,0.3237287406884562,-0.21463941150766944,0.011742528233256166,0.21028092849987937,
-0.4350082862365407,-0.1427493414644247,-0.41849423730713853,0.12924070179324218,-0.09626726060309014,0.027722795094497533,0.1542129439712814,0.37667824799552707,-0.4599406974546525,-0.46492746882817554,
0.32348550181161284,0.251198772116991,0.47374766846912364,0.2847261705388715,0.14950557081766802,0.14246440757290144,-0.3960315569540787,0.16515416849723555,-0.047435147333799194,0.3501633392948486,
-0.08205075908756605,-0.04397157837506118,-0.21722444145552808,0.3799233232566903,0.36216385195365625,-0.3563580951843427,-0.29410742124014394,0.14990382405696326,-0.4034458633768307,0.20994477568383538,
0.11408965438102776,0.27735649190618145,-0.08893609003693927,0.0576131886792624,-0.3177073145789719,0.11674127589416601,-0.4681941175745371,-0.14777819346616078,-0.4392739439603549,0.4672364760316063,
-0.34442446742388255,-0.15344071117323166,-0.14383210016655829,-0.42448592562545284,-0.018870111893725148,0.10258070614567094,0.347587966103783,-0.2779659603203053,-0.47704238695814455,-0.12764414702209198,
-0.3417519820728966,-0.09064752223300712,0.3756861701917294,0.08669725776838198,-0.24032357187997014,-0.294843677376452,0.37632031979785147,-0.41491971639630065,-0.0031174106867878876,0.47311768405707816,
0.007021709866928139,0.22785008422065306,0.4792752499029389,0.4063553183167241,-0.2658015858468982,-0.4085165347521707,0.18877843419774384,-0.4773070905532009,-0.12370932154136408,0.16917285744473862,
0.15094772023882527,-0.13406979293009977,-0.39666068826835155,-0.28129055357957344,-0.46190835165269273,-0.24186492594137948,0.27922962510318894,0.47095247338008456,0.06834760564459903,0.38353315963786455,
0.05255968465983919,0.20853538999775204,-0.4041067100190795,0.3256134163351684,-0.3750477250784316,-0.4082541706011294,-0.36437200663706415,-0.1552685526624481,0.1760931072161251,-0.3617825025569683,
0.02160438858411854,0.1344233710339182,0.2116929250982736,0.13096659158204543,0.37772384659222996,0.3003402267000833,-0.14337753945358608,-0.3421363729833404,0.375866418942877,0.3130852927412744,
0.3557456997364801,-0.3953379174449085,-0.48143937581128543,-0.23710926234297666,-0.3525207155840536,0.41391527438719145,-0.4793876955332642,-0.05759255542756087,0.395569701818878,0.3156806719235911,
-0.3567755101570651,0.41147713230244554,-0.1511891589373832,0.35782058009308537,-0.4151482334201011,0.22870645058281908,0.06927604878745071,-0.1285137754780991,-0.10514518073315296,-0.25932981016467155,
0.2576076744674265,-0.4191523462177157,-0.2597934867283138,-0.06921751747177621,0.4601631563395588,-0.22943456165546083,-0.3042876095675152,-0.33730904256090016,-0.22809811623399048,0.1264761508058253,
0.029358117979075664,-0.2265190451682833,-0.1738933024845902,-0.18326129290277607,-0.3258957841408609,-0.07857253508183443,0.32104662209280976,0.35694981596989017,-0.13491385744040904,-0.1900091706008375,
-0.006063131378378475,0.014811772685791947,-0.2116669570922062,-0.3649519321716933,0.12358629725740927,-0.31982743461078705,0.47049472446510976,-0.11898950390336402,0.36660122708485626,-0.42570561871869456,
0.26032964931872965,-0.12784597162326786,0.14949739559082512,-0.4634700231790284,0.4686201982657878,-0.0036825258403449285,-0.09608162505767248,0.11545030943986329,0.05757922693730589,-0.2382722908428449,
-0.10091951349872208,-0.2317190423008774,-0.3564341366533622,0.2515383767721116,-0.055345895710681416,-0.1965813627783944,-0.48019305342061136,-0.08705386361905594,0.25610205362012844,0.3453550516188952,
0.31287488794087376,0.2294989068705813,0.11406932496896055,-0.3251358675719925,-0.29923763153112964,-0.3673293517533284,0.03266827106579104,-0.2445949624859267,0.35574298475594873,0.22193098520482687,
-0.018097476486414354,-0.09406378200105703,-0.04219886141318596,-0.05230869043865438,-0.02235039506061587,-0.04219184071614934,0.4932258666944467,0.09200094021018168,-0.3456586368735034,0.06777902370224531,
-0.562801671700511,0.32704763358445843,0.15079985121293132,0.002719402116267313,-0.47406659878113155,0.14280085413242394,-0.4018516961236369,-0.2748665747954271,-0.25509541833049804,-0.17319034282037535,
-0.5213694648390003,0.07016564593254958,-0.2461190052986502,-0.06686649305586731,0.13005230757814495,0.08387024193552627,-0.4767152649031282,-0.33926754560245453,0.03218092337916192,-0.34664582311295256,
-0.23582071424144121,-0.19720918434797488,0.07483621538997606,-0.38369020816452376,-0.22164039135824198,-0.08258935143468464,0.4339290762667176,0.11409186615530958,0.19993262836932638,-0.11661157078353467,
0.3042326714156583,0.36305767967930724,0.24390664103848517,-0.2765075228572455,-0.274299165489934,-0.5315095161514054,-0.27163954383346256,0.35597100457837677,0.2927803431738412,-0.4070006856510414,
-0.10427495327051071,-0.05407446058845718,0.48300049127570527,-0.19682770747919842,0.040155885827434526,0.2863684368821366,-0.12304468513670656,0.3023779450927838,0.45031204433489264,0.4840407813218283,
-0.5137875652574396,-0.19967265211995122,0.24966874145842566,0.2800878142985538,0.3044261294556123,-0.2421066051667544,-0.48468409927643324,0.16354474147468903,0.11011876986744887,-0.03186933335266987,
-0.20137711499702446,-0.2652175520528707,-0.15249219815512433,0.3986461103755796,-0.04051028352046111,0.32966840241718853,-0.1746356817956852,-0.35732452005722076,-0.14432633715464285,0.06013002650844564,
-0.4665613077293127,0.17071708614659395,0.017072474526139133,0.37050773771123996,-0.40070741983867253,-0.22123830568326655,0.3935080001028533,0.07850735779621268,-0.09232882400334905,0.20128715739688952,
-0.31939164299344447,0.041411308488881735,0.4054421478319677,-0.314571917192438,-0.03464592796507203,0.08527233561461511,-0.29690635252373754,0.2845155311954399,-0.3499903891596099,0.2070884698620501,
0.1786174250377511,0.4101972898922408,0.14111610745057254,-0.3956065289384377,-0.4315968243706108,-0.22076530933310076,0.08741081519388055,-0.25304299473867103,-0.3968118685426447,0.38745932018738727,
0.3227903959911375,-0.12322674895417611,0.40727503626876854,-0.24912572535698205,-0.0915213630111749,-0.11082273990291537,-0.30121189982313423,-0.4060894648325989,0.24249278835143465,-0.445105672340824,
-0.3544901778368791,-0.09148202256527167,-0.3289044050711464,0.3938176665006584,0.24876236504018295,0.37014157698517386,-0.4150719326886082,0.3639898699529623,0.34198186314005513,-0.4434936924761807,
-0.28784196216285757,-0.2102463349348437,-0.2780920439254464,0.36585397184796076,-0.0894326594085622,0.38604564924322904,-0.048622494309245756,0.4203892299748285,0.020655294799774675,0.042842454979663706,
0.34137712933893816,5.887694809691888E-4,0.3655256388760915,0.250556353501458,0.46667447916407245,-0.03689791689019387,-0.35810807552112256,0.08345491816841098,0.23799356807907163,-0.45109960020603285,
-0.2275100088659857,0.2418485429830055,-0.04905148325232323,-0.4660288249480178,-0.08661215837134356,-0.47440908345061034,-0.38250116064919487,-0.45113139098904464,0.16950095416606442,0.25054985857258905,
0.4464585411561834,0.14089795310676487,-0.10201283431945014,0.2780092530297389,-0.24412714266446156,-0.4326993786671333,-0.49884934036083506,-0.018084528115411783,-0.4243725348504938,-0.4291106489244406,
-0.09136828291644669,-0.24584485905130676,0.2681050845998871,0.24586425661680925,0.43857506992566214,0.04026061301189784,0.39005999075106546,0.3273123459968656,0.06911595731748513,-0.331007778106439,
0.06785952850391269,-0.47905472011501915,-0.19986125126032486,0.1565294681880727,0.05468055640652226,0.2063571768502364,-0.36529146976711097,0.14419025568529542,-0.20276743872972697,-0.4521336177963972,
-0.43596536037697425,0.13879150564549544,0.22281464474459525,-0.015177866602748193,0.2078375435438504,-0.08012070000365842,-0.07334608475390503,0.046337515450341205,0.05765027518006159,-0.38072323013869075,
-0.15550300956721638,0.27892166614541575,-0.4015787387296727,-0.4035315682857309,0.05509273625499826,0.4986095143128194,-0.28258137203642314,-0.3661007822367904,0.11257177700165047,-0.4573947227060887,
-0.19255253154372676,0.05666381237692464,0.26874841067067845,0.20405641121204454,0.254021692126463,-0.3599761054196907,-0.059303057883829946,-0.07107389209883785,0.06820628987048005,0.4155489343631702,
-0.42570750271709856,0.20955814152522592,0.2011949509009446,0.4798690443986066,-0.4211104828665992,0.2689273227365709,0.4303240730875969,0.15529717349241795,-0.3031524691263582,0.17969254460292108,
0.18765525108220132,-0.02750240707671277,0.37387389029667495,0.16339434485538282,-0.36389661643283394,-0.1720221126057612,0.47306905610249944,-0.1740279869432655,-0.4954265631549656,-0.1713154936499243,
0.45251309451669325,0.40688804855435395,0.3240601475460431,0.27694871005715593,0.3727262424632457,-0.022286673213247305,0.11402418681471356,-0.21745627474040408,0.473223510458044,0.2540850501916496,
0.1245194153028095,-0.2854029133952997,-0.37241646635717984,-0.1581323894795073,-0.4585919985232575,0.31496802642003574,0.18576012212206694,0.4399877613439056,0.31053557295864065,-0.25499800255079486,
-0.18184340643229885,0.042579875650757985,-0.26921361633226937,0.23244615427505128,-0.33749768012654446,-0.32146604937355405,-0.1301161557853797,-0.019826443829248412,0.3039079825204675,-0.08750334030593335,
0.3221641700302448,-0.14074874494098277,-0.2713665830806104,0.29921977213151907,0.1241187258631607,0.3704622399587016,0.4096292749586235,0.18635573537609482,-0.24324891756470332,-0.19443927572210554,
0.23356986352930867,0.04449627773822002,0.027526013528385657,0.13983291773710338,-0.45420148982193953,0.3818634306010032,-0.3222567166929584,0.24954359884151678,0.05933801313649815,0.07273690614243415,
0.3712042257883446,-0.41276242893156195,0.4915354167752589,0.0757600404796554,-0.2983551909039067,-0.2596375866969997,0.014207504552929068,-0.12827148872429905,-0.18303981088802204,-0.045512530536077705,
0.3065168380792407,-0.1993721417648763,0.056003428737325035,-0.014004068632609832,0.02558087385123068,-0.2901083223712881,0.24368715352385747,-0.19073950794778985,-0.027845186431200392,-0.10465463672996363,
0.3305212942102247,-0.4497970799208796,-0.1387755830715161,-0.021701895329534947,-0.4757778928937534,0.1700248403331755,0.3250973470514499,0.14541748874424654,-0.2083235665838174,-0.16266144593823104,
0.38133105539176376,0.2230965084812937,0.2576310638257304,0.4666762572761349,-0.20766295888437475,0.07051919699656134,-0.15021293891029158,-0.3575723086027392,-0.4369414517930065,0.2448032519246907,
-0.4907730765735663,0.19233716601431392,-0.19734365156246958,-0.007075471533699263,-0.21684386656997212,-0.02973987977743334,-0.5140119778882904,-0.11277372275959875,0.09005429939695325,-0.4078203732404963,
0.04258403564667055,-0.08125942177201746,0.49010289170482013,0.18167116818531234,0.3437196963561289,-0.321323593980022,0.40457753387825174,0.42360175755458623,-0.25288403308775886,-0.12550659124539928,
-0.4001870484213525,0.01683160640767695,-0.013397026816269197,-0.4347754299633888,-0.4184986532300322,-0.10136505992559831,-0.14365443047596996,0.4534286546869325,0.2769804829439772,0.08249742000759584,
0.20061183517475165,-0.22611839013837637,-0.31615465405992704,-0.3374987808814064,-0.4268368684648941,-0.35253300944581456,-0.03761029973308616,0.35927841583179204,-0.45720461310899,0.4223930341055494,
-0.2237786883222965,0.268955476926125,0.30296009872899643,0.4177758798855826,0.45199953444137925,-0.13367543555938305,-0.13112355667636233,0.31498204282727504,0.18310975015377823,-0.2610479740036785,
-0.3150452730387215,-0.3065411999666134,-0.22387553396415982,-0.47663914586045203,0.3452998779772757,0.4671065725407516,-0.388588909361889,-0.3545116414224337,0.22621915667582182,-0.28536789632582477,
-0.03213938158562998,0.3827533007787814,-0.17417242381432216,0.34481274965356296,-0.12966723350634263,-0.20807945020378663,0.14039437745456673,0.29145198447116094,0.3889561648673824,0.17411632928625279,
-0.13406138097796494,0.007535757176463248,-0.11842798802551982,-0.25092619853957326,-0.023766542535852073,0.2929391201655162,0.0846246330045275,-0.1351273474399513,0.22501455934032577,-0.17226306794676616,
0.2099692631797604,0.06907945107229416,0.36702108380924037,-0.417170259191509,-0.2624391016214643,0.11482656970445228,-0.14577793528812458,0.46210960237734966,-0.262945280980346,0.39251484500740697,
-0.4756041752103737,0.12699667012773652,0.11484831545052532,0.3204307962801449,0.32805969508944477,-0.28363739168201463,-0.47325677826435153,-0.35976142530920374,0.4166894277793224,-0.3043903906846349,
0.1616903448458848,-0.1456838373656835,-0.057538002768699054,-0.4578798064854078,0.3478737114493291,-0.37663389934247876,-0.07729220874430501,-0.09947630155526836,0.031962467978746044,0.28124209184599713,
0.2266674166782453,0.2800323250033167,-0.26706077650263066,-0.14414217412497013,0.17322580936801393,-0.37890003399135186,-0.34626417022725353,0.2572004595924764,0.17135782056339502,0.17339464614288824,
-0.10015795699371244,0.3821657507335043,0.2270905521808111,-0.022604295427928255,0.47156575358868813,-0.2569487761230696,-0.16608855741578166,0.3858384693921325,0.4000819860289469,0.14550159564603854,
0.44340546562784633,0.23360584264045298,-0.21567637422477437,-0.17190352283373253,-0.33313990313478564,-0.31028452550561236,-0.17150490966921725,0.052636141398166726,0.09737944520417854,0.4630687532749419,
0.4979058573241921,-0.18304971276850093,0.3515573888215729,0.48842315947487003,0.24571684818513612,-0.08593098771665267,-0.09182643115163752,-0.25571366215938296,0.13985371367312827,-0.2363912036527594,
0.40426786788010544,0.3765517947230332,-0.29701714747776037,-0.25970979447311837,0.33102016606701673,0.08596801402210646,-0.06269168804433406,-0.26689135865314967,0.12910088360955616,-0.06304420339347377,
0.10730545309285676,0.4808893223000769,-0.13944785275943,0.12442890884584656,0.3110392401258209,-0.4087681859608476,0.33342502672601765,-0.08807309959973994,-0.07867211702149937,0.06145334272435227,
0.09437660245582355,0.34555663172614354,0.39466400610195485,-0.1656324455527165,-0.4531346659405152,0.17407284580641327,0.007178788550643501,0.3684107458796463,-0.01492696502065538,0.2951696404019631,
0.06087423995783063,-0.38680941613895486,0.1962472459026961,0.3866964745647752,0.4036293192736882,-0.2876869532758809,0.3766256089524119,0.4430418659776561,0.018687103860954932,-0.14687335707121688,
0.2252717443731216,0.4250732363087903,-0.25527565916730827,0.1897553456288033,0.17469450644359108,-0.10756150573815948,0.17186571321134,-0.0763492569881349,0.10991425010093711,-0.07337039534618216,
-0.1862863349884707,0.3515214362065965,0.13900138890240624,0.3211947953877105,-0.06636606229292356,-0.26608317135979787,-0.4243203054731112,-0.1718008113247329,0.03829535764360408,-0.3605343478039958,
-0.3328462705189775,-0.3767829102255884,-0.4299674439107764,0.026711695593470402,0.08016848267040222,0.3067944024306326,0.1789394360433561,0.4321050784322584,0.053837374258447,-0.355265246703057,
0.024787921552461727,-0.44832284723566557,0.4078245946843569,0.48948915096031953,0.15726207908196912,-0.17789465513239808,0.10365233293159931,-0.22352269063010874,0.5477576604898587,-0.48651530266012505,
0.055684421812215654,-0.4646832573155224,0.2002815604972974,-0.308098552434772,-0.11061377988546756,-0.05637937165172941,0.052269838569074814,0.1384614889620946,-0.4122055648027522,0.24403654903009725,
-0.1929440591965906,0.11833424300304039,-0.21043598485590076,0.30221753301036774,-0.048219117157716034,0.44046265143408975,-0.13559471903623785,-0.2591178759645273,-0.12844193188890007,0.36495355252211076,
-0.39585626958868947,-0.4950126133837001,-0.304842898499406,-0.4590432550053356,-0.17582486336256256,-0.30637503183311554,-0.254037588733305,0.17550388015054444,-0.3866852940049052,0.3819052004560917,
0.22288686500207766,0.07911797160352219,-0.2678432175048264,-0.10585690469409934,-0.4781464699091224,-0.49603162833568964,0.38445352055474313,0.33919340905289447,0.04667276859948521,0.05516820751518415,
0.300927376424698,0.3830675842681725,-0.07941553718931976,-0.49396117292579894,-0.28969925770346927,0.013810246859349298,-0.44126472620104384,-0.372234074508427,0.05885665655875453,0.38285500537732414,
-0.422830235939811,0.30133905455528875,0.0717089068713643,0.44261194811003635,-0.468591850394001,-0.13126593439550263,-0.22687662235272843,0.4634846246936841,0.1373938430356158,0.37282489120976575,
0.2933006378798539,-0.2724678721094195,-0.4687676165246426,0.22858297815165798,-0.17121825753922074,0.36754878975793515,-0.22925671277946338,0.04798877558404836,-0.26146301503985775,0.09800494058675638,
0.47882653793859886,-0.2728522248099805,-0.3322583585691543,0.06919249560008711,-0.3595201817124566,0.27613053641274066,0.4787436374179962,-0.03420109100583357,-0.3878721327600425,0.04663946055612367,
-0.24434009911357127,-0.31399008305817194,0.44086402270624026,0.23848094879976858,0.41992672698151606,-0.23016366423193704,0.2731764502062649,-0.41523392646093327,0.10218706698383338,0.38000636780043084,
0.3204418960409226,0.4822030540581472,0.14410733327019368,0.39956604089041253,0.22556000962617298,0.18742396358325902,-0.49088539582770613,0.06282341623588672,0.1467828979016001,-0.25176070156902297,
-0.3675645906908637,-0.32131026687834724,-0.3918201258431932,0.4011162941985453,0.12067147798561417,0.1371489897105853,-0.1331394076774447,0.2063171071090212,-0.37833436986322483,0.3896115537618042,
0.327831324966612,0.03664736584578994,0.45064448768626925,-0.09359180997188271,0.05792190798824699,0.05152348579636539,0.35375575760315714,-0.10400086990030606,-0.02796799040388981,-0.07735696337861672,
-0.31730203007283736,0.052515207156089996,-0.1637162764326597,-0.06376979473769569,0.3821332325387313,0.32188138412102074,0.3656710823157883,-0.4681177134050624,-0.12024423554462745,-0.12699039219407102,
0.12803066374486205,-0.19725792410277923,-0.19883904301546984,-0.43278215537178194,0.06732175807246968,0.10218375394779486,-0.22083098672090584,0.26044904919944595,0.5163755931514927,0.33749277776194553,
0.3619387626769721,-0.3366395598407029,-0.2958244902225934,-0.4047690489751299,-0.48987519602541624,0.14548285830048077,0.5505406711743668,0.09215819424728855,0.41369362547852606,0.4558835780889611,
-0.31776145371223397,0.20180454659171,0.47598950283420627,-0.3293104813967328,0.030135010240714705,-0.20947958548955828,-0.4491405387714055,-0.0539504423475176,0.28282483187264174,0.016216877357849126,
0.2905223689342627,-0.25759701806052243,0.026326049122537807,-0.3317919242059984,0.048827998170957426,-0.34669356797979944,-0.3113386004626492,-0.0057318352637808,0.1881384478997856,-0.1059354487446207,
-0.2942833491303844,0.041982545049030144,-0.2778226067048756,-0.13938691632099598,0.3241355767143755,0.5675482765451912,-0.1913186814808179,-0.35572611249181735,0.2678533665530912,-0.42401045859916603,
0.10891581667557484,-0.26156750997678296,-0.3912915258132474,-0.07814147443368884,-0.1285575952857239,-0.06285270300103313,-0.2644562375406255,-0.38605758906149085,-0.2535138410841878,0.34532839019281175,
0.41777853349268823,-0.05788173712024643,0.4761125616084543,0.039558461313238306,0.32990027420252604,0.075425184049534,0.5811409430629512,-0.47153880634464285,0.22967669922595044,-0.4601562999219463,
0.27604183054361997,-0.21265621597040937,0.47905564786050314,-0.15301943270442173,0.4681334904567909,0.011132932785134947,0.3693345009276338,0.028046385280477565,-0.2726707823918967,0.38395108387680327,
0.19183632650403254,0.4648949609165114,-0.37033658903717737,0.3121679622978162,-0.17547674338208588,-0.20723859362708122,0.020758239170519267,0.566806913728284,0.48406374369367383,-0.3597855400717882,
0.025631078702289124,-0.05944146811079612,0.42725404568940833,-0.4811538286938451,-0.3351183548769558,0.19228583912568087,-0.24262959173684792,0.3037185050529193,0.09623173631655882,-0.4711218095173006,
-0.3196006800067437,0.28031570358499325,-0.005819451823025145,-0.2696692023033411,0.19814318192186575,-0.49705195504612126,-0.20747172568370784,0.17051297394997525,-0.07650556574202465,0.2252116877914618,
-0.336761516503515,0.239621920641044,0.17617710887330149,0.02328080925133898,-0.2882300847800942,-0.253925742492812,0.48351011061608595,0.16772897514035348,0.06881115199482385,0.22427744886517795,
-0.1682173704768689,0.21531357226569944,0.2335965721443113,-0.3295221943488196,-0.333478386724522,0.370031782853454,-0.001706582242676692,-0.35791438715301765,-0.1356367515437924,-0.1706269631295008,
0.3203119152187707,-0.13480062979324495,0.3871371256831073,-0.4694307874771035,-0.15044668710956532,-0.02401335170674141,-0.05314585413670793,0.4184753708682985,0.19335530565701922,-0.323030930172535,
0.4935874316713534,-0.24037367457015588,0.10483717868394636,-0.3603440345889772,0.13649268689159724,0.4257472683659264,-0.1553988450584618,0.16169390878186296,-0.2011967792839258,0.3600513842156195,
-0.24716226911570205,-0.14038211641173415,-0.42510394472866775,0.24104474997025715,-0.2570497230025327,0.15665691035523244,0.19332806440608463,0.3575481964421062,-0.2580240948668372,0.4401752770779753,
-0.4503843896090891,0.4404928843276375,0.48759013200830875,-0.2586930896589983,0.40706006102847914,0.2637645760696612,-0.4036891057096268,0.46570818314348217,0.4333823188810065,-0.15057503644361975,
-0.353912066784289,-0.211859794184076,0.17117821206882558,-0.48791792711803783,0.036352990633162205,0.13115758955713921,-0.012481053104283367,-0.04421256158306442,-0.35192105399455376,-0.3490088712167481,
-0.3931400139120632,0.22597472763868365,-0.4876816526931119,-0.18815019736282176,0.09432046586619046,-0.03215588886512323,0.21538455837633966,-0.3407648822839393,-0.08177493924866243,-0.21787414774601122,
0.38006132358261135,0.3548249257582695,0.3407409629804514,0.20361363621778175,-0.05001374667616925,-0.10352840550061436,0.3056484085702051,0.028498654089353925,0.4683346044208467,0.07768805986986582,
-0.31124994829882613,0.1861806937637044,-0.15842930908591374,-0.16462055903315,-0.11016247544549047,-0.0966555902237928,0.2896232568819927,0.2534684463255486,-0.25415748571711205,-0.4707719202821428,
0.32494430667287605,-0.20640802914757636,-0.07381651434098424,-0.3482034691107757,-0.1595024240304739,0.4292668679441719,0.10583200478437102,-0.35523920314588897,-0.08511297130098763,-0.34854323700936146,
0.1989663653664795,0.3928764158691051,0.11222668823240498,-0.4229078119499576,-0.15686853902580966,-0.220185920775749,0.2116467589808144,0.33433419242243617,-0.2091027843408655,-0.015896865399765682,
0.27820791938214595,-0.40582822191871654,0.43932570163661216,0.48813106983622095,0.33950601064383906,0.250326046620574,0.004487996509711238,0.24254201282272436,-0.22659434352373023,0.08756162689779763,
0.09515535548384363,0.3253659548748879,-0.495462568129006,-0.2770511681311044,0.013770851522916835,0.13554357713043969,-0.08455394173887874,-0.47630239408898584,0.35923492148617076,-0.37751726548303227,
7.515772346732008E-4,0.1593884105548804,0.37867186249538826,0.10203055909400098,0.07780344654185795,-0.16922558154230455,-0.03221226284215486,-0.26461968062939933,-0.14121798064169097,-0.2597372962433199,
0.49563680034965973,-0.4498444785183562,-0.4148303917123751,0.2391098342514186,0.5190811954128373,0.289111270767527,-0.22860725619532626,-0.34570193103715585,0.4490750263708252,-0.2455253849738407,
0.38975384876767616,-0.43321309173897743,0.3317484481861088,-0.30745205318393903,-0.09432436658198184,0.22542530158220245,-0.1711833926470814,-0.3718866595287197,-0.19715893321838113,0.006797436013331906,
0.26683042664442114,0.10313436352869433,0.15815183950926173,-0.09069563830468842,0.37184785258605985,-0.19681756095707542,0.12805553027605707,0.050257970655090696,-0.08548724779607716,0.43513601259987394,
0.31799734076196806,0.49761854743420086,-0.21112703376071856,-0.46166047977591856,0.3443681174651721,-0.44024236062726474,0.09306799286386311,0.33879846584841444,0.28076654455568245,-0.4070890902998495,
-0.14520745900815774,0.4890742723121627,0.4101737915559165,-0.11419297989139064,0.19522047968493392,-0.0461743798143782,-0.4875277803025681,0.22216156635899686,-0.13744057424877376,-0.21903305387548205,
-0.45556730331870676,-0.4842425676490919,-0.4669430498291113,0.24046872137320677,0.29007689877035914,0.15016837942008832,0.0805727013744381,-0.18765460692486932,-0.23828789827360367,-0.18178613864995447,
0.34819428956197357,-0.2847181777571862,0.019547098752249383,0.43328386197680047,-0.4147752831234351,-0.33975062191316735,0.12654589936313757,-0.4971445017889548,0.12815982682669777,0.43168818217257704,
0.17383143273486928,-0.323558605522703,0.12919919032085922,0.31520359371761414,-0.1630796349897756,0.44551326821818593,0.33335601798203895,0.39341288018961806,-0.10948785377601426,0.46990461696550795,
0.0796110138659721,0.3468487671143299,0.35784342836585137,0.2921793128569511,-0.10286110147209801,0.3094865282177688,-0.3792091533859389,-0.20486627845658198,0.05248547027196379,-0.19626463972527902,
0.13711491902690753,-0.04860746823160752,0.012256213872986204,0.36350702474479907,0.07512945661683394,0.3441416214656,-0.19637552168118974,0.07475407706151285,0.05097313640849562,-0.2887420173598351,
0.09020781337265293,-0.4384349004957867,0.40086294922435706,0.4759120832717467,0.249116935830637,-0.4804766323784331,-0.17263497004220052,-0.1290120369550145,-0.4788450867979197,-0.15643983539416073,
-0.5151582725701267,0.06594626902674165,-0.2420236895418829,0.30935561255901456,-0.14580052044117559,0.436465124100809,0.3440429830977374,0.23940666845595976,0.17176913116490178,0.007304313361383818,
0.26061444770820114,-0.2059122571551876,0.29078960048270197,0.1918403510858525,-0.4401748158198519,-0.05292305168953989,-0.40622465316019607,0.40661354148589096,0.2631119196781777,-0.2382635559084309,
0.1377700764670964,-0.39840654606812886,-0.3653252175701946,0.43338221368195784,-0.049032604611379774,-0.4438622809748131,0.20343602570428834,0.4219595817460209,-0.27268212164178934,0.09087824641766236,
-0.3435480683540512,0.04349414458841332,-0.19420068106895147,0.3708270375343433,-0.3630615774215055,0.43112144120088564,-0.0669113153882775,0.21216821436385233,-0.32848764993510776,0.014622277431150304,
-0.015464906494830448,-0.28233735568872953,-0.44908129890896664,0.19823686918876074,-0.3674913954276115,-0.3699323460749583,-0.34511765854645704,-0.1646932286268173,0.0651447784155855,0.27851181440666994,
-0.31179299121490195,-0.12746508343517915,0.11763818038950496,-0.40320103084990777,-0.20798856841050836,-0.5142795981449642,-0.29955325955066026,0.2963553827292946,0.3427500216506695,0.47572396556431873,
0.44257998558311984,-0.4128872838529384,0.04631401693144029,0.0971387993373651,0.4745820651038689,-0.24158698398612613,-0.21056581202115127,-0.06957316886469446,0.05247992900994196,-0.4649493569744072,
0.0851933845149929,0.025284076192622577,0.08649299687150294,-0.09734016982303537,0.4559338876300214,-0.0421899177091224,0.14946586547090027,0.3829806494865172,-0.2572821095898379,0.12892031966433537,
0.4265971257377596,0.43380166831961764,-0.017580519925984184,-0.25790245237240417,0.36787801914932994,0.2578179351121444,0.26398578186053856,0.23090768222575306,-0.05317216731407193,0.44635611380004975,
0.010213437603096325,-0.48202572823023077,-0.29572389454499975,0.06173459281944537,-0.3857288541197249,0.23886713996124764,0.16048997310025034,-0.2556741439861665,-0.3427782035026905,-0.4064831178639486,
0.46180411833956037,0.4819191684748871,-0.25176306480742267,-0.23262565152253636,-0.2684023517924257,-0.29464281307217705,-0.2813962723436479,0.04687993177428173,-0.4818814533346015,0.28462706435130064,
0.39085595640171833,-0.08784138007394428,0.2429878095128642,-0.09753513713825926,0.4407235576299509,-0.08113255674675952,0.20506896966166466,-0.27977084904496186,0.2665086750432085,-0.43573822373920157,
0.17768795855580866,0.20254225673983547,0.09222908256889045,-0.18990992390409975,0.375487770469588,-0.5062806303986018,0.10762255725183335,0.25708875187106456,0.10335970419966503,-0.41693159185227957,
0.08990014646639223,-0.3777742333518207,0.11921102506057664,0.27675613996374054,-0.04501329735844287,-0.4881857712858881,-0.04114640456340631,-0.3510657909249807,-0.026130758113385878,-0.16109587755848964,
0.45008649839311016,0.18322623711413535,-0.42208310059363385,0.19416905732705647,0.40042635905304247,0.38486704548931683,0.19593134893658484,-0.13460633114112253,0.29643950624320903,0.02190526812641355,
-0.17905397479554475,0.24804775921163993,0.4474987496440993,-0.3664644907402065,0.21218105789998398,-0.4647322933626462,0.07273745037748776,-0.34742464887502655,-0.2025529105018501,0.1969523069805873,
-0.44211771863067856,-0.16753662207449954,0.06785129482238395,0.40359111558093896,0.3165723609196872,-0.28841798666263435,-0.44236876178939644,0.4894394169716688,-0.17965126331188544,0.24893495943050334,
0.12959155038195727,0.3446630162505445,0.349467421488869,0.1667553771378359,0.09304380215908667,0.43619724318592357,0.3469885009224848,-0.266172806765075,0.3073793831026863,-0.11332121098918167,
0.28640724504,-0.43810080411377683,-0.09775670011392489,-0.12408150468315392,-0.4542411916014469,0.09744251577362009,0.40650046093678527,-0.47100624609929886,-0.08597938423911224,-0.07216365858595185,
0.27359583371770285,-0.4340375071026721,-0.40526366837475963,-0.3847946745104249,-0.468910309306183,0.3379992381135078,-0.14579602397791913,0.07701329280082315,0.19638368295285305,0.025231403700464342,
0.35628993156931366,-0.16791883960698373,0.4289242707967009,0.4816484039541503,-0.06480800543388054,-0.3071362226579524,-0.0928835605661249,0.3889278893697907,0.1299575086597312,0.059448205310830615,
0.45446785435202225,0.3199383760814431,0.13738118490019208,-0.3511332797468481,0.32887618763426646,-0.2274387203552333,0.46978252872957704,0.02937730965892548,0.26927798662735153,0.34109340481136835,
-0.0737107333940343,0.4170985684355869,-0.4924919163347059,0.28121751307089793,-0.04226720453978847,0.039299612582701426,-0.4426358046886195,-0.4132697045389008,-0.019904086058859703,-0.37131128166567934,
-0.2906060416632335,0.41760947453581615,0.1511326833422341,0.09175332995399904,-0.44432699919594565,-0.3135825269962834,0.3765724309213235,0.1588282020291254,0.22167018257246465,-0.11348518289267986,
0.3430303472662618,-0.1388802127307089,0.2025705456946576,-0.32314909935134434,-0.23688021789230446,0.3694464078909416,-0.09191190556854985,-0.09800105924403907,-0.08539926939887832,-0.345419164891286,
0.16663020588913624,0.08623495028903806,0.48474098986680103,-0.30874759539244934,0.05282873796547496,0.49092037161538,0.5047202241609736,0.26077349201064043,-0.34634122063112616,0.4021992714947207,
-0.1686379198253126,-0.240811784160657,-0.06883624393179566,-0.49781701123562777,0.2879323746768237,0.4053028363945541,-0.33154207311713174,-0.0317212590015211,-0.022729232208234303,-0.11353470668007812,
0.018442409921633405,0.3358605990167027,0.22711511746380966,0.443572881414906,-0.060271446901084005,0.3114743153521175,0.453430352088638,-0.12375648151119963,0.027483713206596257,-0.43162739543144046,
-0.4655145898346182,-0.0887202208461788,-0.42063209910910115,0.4331333741314102,-0.33660553009192545,0.10078787920927713,0.14863591101518298,-0.14265713815407924,-0.446120247519254,0.23757854729717792,
-0.3512475349567138,-0.3659338498744878,0.2721162809197393,-0.04248364181830148,0.23576948621307645,0.156679786037191,0.1882545927312497,-0.4603167238909009,0.3662145089327374,0.10509904731898753,
0.13711288706654484,-0.2957286866360954,0.13352648664871056,-0.31919425356034803,-0.24009217044116724,-0.3360277468376989,-0.23002552850077712,0.4491690561440545,-0.010586597709557421,-0.027489788934484376,
-0.17199787668436384,-0.2363362557007083,0.13158469742558013,0.4350725119775657,0.3188864456275064,-0.2042252296170037,0.047670571777389564,0.185799390885099,0.21150681682733105,0.23911850305897614,
-0.18602533068800306,0.28188816893226215,0.28936602070641737,-0.05152518951973672,-0.19608337705852352,0.14031079929492402,-0.48186111163522904,-0.2054576524520639,-0.27577509341294315,0.023647808670750413,
0.27510258283430394,0.18691891412313402,-0.3789780272472671,0.3051849673885356,0.1747124652781201,0.33951538286346317,0.3581045711837582,-0.27117445806686474,0.23352412859752805,0.20828655756669717,
-0.3548118677283073,-0.24314246393499325,-0.4793002257378083,-0.0717834320787653,0.07977929080399941,0.46404838249750907,0.42898344996817955,0.22237512978883447,0.23188085381566834,-0.0361766330987473,
-0.20583437649214112,0.22873877454978347,-0.0912207512659037,-0.03835538392290015,0.13145466540299097,0.28711285782288853,0.4798489858609402,0.09594227193188246,-0.4351988034040392,0.011549743883363795,
0.28832738429642785,0.24161785167063166,-0.12171812718433166,-0.019901943610866144,-0.18381944482062662,0.07317902818245725,0.3739747792047345,0.05484041374716628,0.2388518947780571,-0.24502247462789864,
-0.05676167221997462,0.07125629743163256,0.2729160976034846,-0.2601269230729321,0.26031390535976145,-0.1567852640984699,0.06732407241665345,0.17797601662048856,-0.14682038058916208,0.4025105245377916,
0.29173611382494624,-0.3393831176249667,0.10705817208316022,0.36729163559991007,-0.49313936773252054,-0.2655677625910272,-0.03191447559536377,0.11323360866089643,0.3166059575462725,-0.1900433863472458,
-0.24308500960041513,0.4459110721236087,0.4926533805968883,0.39911978227533634,-0.4889264857993439,-0.18934467266099253,0.20127230247099218,-0.2514436583315678,-0.19036596811566744,-0.38824724578427405,
-0.006678776786329743,0.43522543244681056,-0.4565688229875633,0.3069538701348232,-0.2729087371760461,-0.2605559075637685,-0.008929165704593347,-0.4211010046342488,-0.17974291011532603,-0.11554410159750167,
0.33610751064824096,0.07980727087394413,0.04985109794070075,-0.48204932435651293,-0.46915783899306474,0.32306184191264564,0.09164111185590773,0.13933827979188373,-0.3698928669560323,0.17253004633804891,
-0.16620762410372725,0.45120931198076397,0.06510187157130388,-0.09814534939350314,0.2784253474399364,0.03399151182206354,0.3260242494696867,0.14101861573668303,0.3809290716625659,-0.1545121819209963,
-0.09220328669896524,-0.2041807630369138,0.2027964384939569,0.38329638912365993,0.37541313039916685,0.44920703517262667,-0.16247747947498248,0.3280573661218096,0.17661983200228693,-0.23231800192108562,
0.17389812990576128,-0.46039493457895786,0.4120723756818263,-0.35857695554976265,-0.033312394748732384,0.4478429762296705,0.001350743955622533,-0.39759948949249063,-0.41577427132908373,0.4986147711320608,
0.28237755889287963,0.26980229237496184,-0.1963225440384681,-0.3437694024385602,-0.33878656385120526,-0.032871577010528966,0.4694445359776345,0.4522556235070145,-0.0859122184218271,-0.48755299031970745,
0.052936984679380794,-0.4973649961851808,-0.07063439758912957,-0.19923781232949392,-0.2621749560272241,0.026430997817676702,0.2938855169017899,-0.2731888394182402,0.1756471612358687,-0.22804172531940858,
0.3700764386818406,0.04968177450030398,0.24999377643264592,-0.02383259446770559,0.40145169350600246,-0.30366209532605964,0.44029547223189514,-0.031063005381230344,-0.2336838888316046,-0.2823775312674846,
0.34675592659662857,0.40829173812919606,-0.3348487044846273,0.07152558357908535,-0.09111095382592733,0.2773407885073732,-0.04675081797815428,0.22534422460229414,-0.3730635748209175,-0.03840127766548641,
0.2621753134101239,-0.16348435937694578,0.22595203337873432,0.08850973636990218,-0.07939162393242924,0.4719083101898628,0.14649686162007278,-0.08359110501152375,0.4529205476572779,0.0932483658495967,
-0.3613944070826323,-0.37478852145416147,-0.2866496672624621,0.12446880825508232,-0.014107960848242198,-0.4949190933215894,0.25972550504773156,-0.36545935238934907,0.06812408540120346,0.030517388566019533,
0.260204590082906,-0.3090576078992936,-0.30814753357409397,0.26375737257641485,-0.19133945827460405,0.20945018648568006,-0.3670288442636975,0.18750417292584548,-0.023113746440153418,-0.10099385272516595,
-0.3789918744314735,0.3033877565502463,0.19218263171090672,-0.23776126999755987,0.2893323025618631,0.4324479121681743,0.4864487911783013,-0.41767660470654644,-0.015541588542466206,-0.1817881734411623,
-0.34187658505273494,0.20213464570687373,-0.028523591043476734,-0.3135177449928023,0.22391814893934073,-0.3381401198235973,0.45539511370766184,0.35105678892744935,0.07056355217559203,-0.14655407570010492,
0.34092541048538144,-0.05254380009580128,0.31128315649672156,-0.22053904124025284,-0.1725441836420394,-0.08144928889914207,-0.20681105645102074,-0.07403901643753667,-0.029168248335235628,0.1462563603852473,
-0.06093771020606153,0.3301153418834805,-0.4631991050772649,0.4279614117670248,0.07415958427768227,-0.22403197160507998,0.4643452299855316,0.04190059506557196,-0.0060963195959651715,-0.42217423331369935,
-0.46300126422583576,0.41468771472308896,-0.1964520412187988,0.08793707909856975,0.2936464728684606,0.4617691786026855,-0.17673719885519518,-0.044776669286756186,-0.4836944284499506,0.02471926435518045,
-0.3941890983903204,-0.3930211354456829,1.1356432389198895E-4,-0.34541057678089776,0.26507812847792933,0.1624872842598485,-0.025402853435979752,-0.13319718997913313,-0.1892182345619427,0.06783520441311072,
-0.09794247828844693,-0.1304290213380129,0.20949422632121956,0.14016007775125486,0.31672090433074757,0.40731971996381194,0.36115798501376184,0.2920721257604134,0.3486499409835695,0.37161957521347716,
0.01563521752768854,-0.34974904184145644,0.367573972545583,0.3445061862092673,-0.2911739741090236,-0.3988490463944098,0.20952266401209463,0.0012385454683745208,-0.09213473462435094,0.18479671072887593,
-0.16213193786010105,0.33009667781663754,0.45361549975339094,0.20226305911885697,0.3875648888621015,-0.46249881932683656,-0.2589873525725024,0.19098811529413776,-0.43950598604724567,-0.1652740955514779,
0.4847358221380861,0.2315453691736216,-0.034846774553067644,-0.117834275998687,-0.27667719027036763,-0.3474483611789704,-0.17809192794552564,0.027133607094726297,0.33396493172493286,-0.4172442051189402,
-0.05773232263472128,-0.4645834983035583,0.01614410740636807,0.440395886821069,0.30046163069681275,-0.4784526695486454,-0.2913009278753287,-0.30691615962040386,-0.06391809840848706,-0.3544910697540017,
-0.05366576503885456,0.24134805689866026,-0.4531838853996065,0.3437806996161642,-0.08922364753859786,-0.2718976002075432,0.12892564929351397,-0.14478680866473118,0.15032328291639013,0.46965650076639703,
-0.3857395632344228,0.055519205555550906,-0.21730018372795093,0.07394165002326053,0.30904743260235135,-0.3855786695236009,0.38192057507761445,-0.047180880419684726,-0.21100991261788477,0.2840408003265025,
-0.12986620630469217,-0.3676726186074815,0.13556816733811156,0.47605334436281005,-0.31195078298139245,-0.29101840219078706,-0.4922926311375275,0.14183235117273765,0.10421611886235146,0.13487301953358655,
-0.07136986643319809,-0.4338933244159576,-0.419487845310418,0.2534431243636053,0.25829405233448294,0.2164316461882861,0.09698884480945721,0.46135325741796773,-0.2216325315056944,0.4153656034193363,
0.3151822056785845,-0.2596411275004949,0.28468078508534134,0.30955656342959076,-0.3588549535809473,0.16886705418085232,-0.3346018508507678,-0.0637450753530387,-0.20780944061989293,0.3142521894138408,
0.24586765217614442,-0.3899758926709899,-0.09240015014190854,-0.09312099217084241,-0.48076475286330767,0.27491013082531085,0.210195020001405,0.3361590942752599,-0.27408820406079104,0.3920511361103086,
-0.4565003241941821,0.09189908622298479,0.1878909957559575,0.0574351199537166,-0.2173707430872032,0.18933409793757985,0.26645674609908854,-0.3465396907130353,-0.29388372447561145,-0.21274109911113148,
-0.26460204176413177,-0.49388404062165475,-0.027783325082680346,-0.2181381751377438,-0.07949456680002127,-0.2016348248331672,0.31481741073664615,-0.11478002375306129,-0.4864600889512929,0.34344390116936147,
-0.293135616422885,-0.2616915822178955,-0.4991441804299555,-0.454623898970801,-0.030210303220278036,-0.10574659246855311,-0.48021045231410237,0.18110200035169707,0.10669248958532511,-0.3641474814916942,
0.17453719770784873,-0.19784175806896467,0.42536613785739036,-0.002137147179874013,-0.42994615565445715,-0.33059640238788746,0.12051019819214724,-0.28608467426951706,-0.2058035383668441,0.11824537828912539,
-0.09616318672173367,0.14482033574631592,0.4759613475413482,-0.49088589124196585,-0.1528646362685092,0.035713045483380224,-0.2591773596077015,-0.12015864258735115,0.2935967760231674,-0.18290155595469443,
-0.36702303640746087,0.3249725750413982,-0.48776437939041906,-0.4973911208683769,0.28024060619211805,0.0490443747429163,0.3208203577178359,-0.10966487703564363,-0.3555394429381379,0.28512972065622877,
0.1410429005489516,0.20823233736700159,-0.02944171110659257,-0.21657365457597147,-0.4376726700903885,0.12677226672480832,0.34965172359620605,-0.3047842372063541,-0.1240149519347571,0.2746630864417804,
0.11267142825877943,0.12375625538135537,0.015369801177529339,0.17345234035798685,-0.043853749620768705,0.45148356990374927,-0.029881348814325852,-0.4298426555253145,0.007837199212214027,-0.2671817518793267,
-0.29329919363957646,0.4698544028097877,-0.13601385641458044,0.07073600756431515,0.35203562784282866,-0.04247935105839531,-0.3047914675211519,-0.330800707394102,0.2851685109318041,0.027038417326092707,
0.13254737803272088,-0.40323112139790934,-0.40511628161296215,0.03507273386003226,-0.08073288164761382,-0.14522457295279106,0.4137567651985462,0.25050498119534853,-0.319200197164898,0.43615216621524944,
0.13978264090103396,-0.08150123036736208,0.06607981011615681,-0.4053721424923981,0.30902606039928837,-0.25448176024083263,-0.03592933883292757,0.10314748397551818,-0.058013300954073845,-0.07554588594393549,
-0.39733213962716574,0.4115381484419765,-0.49360648826472,0.44562137570315347,-0.16124776801007626,-0.30224318220843827,0.25480502604826516,-0.12797160250898182,-0.16503698458047406,-0.29624580475647766,
0.15741182793146669,-0.07652656756289168,-0.09344302020732372,-0.33542958849797805,-0.1779187503174159,0.1768129249003626,0.07207160846218606,0.46281054541665695,0.00237208585942379,-0.43488928893720424,
0.11455406278429939,-0.22752048259694005,-0.22932853605502407,-0.11843514867333273,-0.421035886103563,-0.19319645424144222,0.002323254306262405,-0.32028992759470915,0.15289804589763797,0.10961501056362993,
-0.24765370837441736,0.042019685238668725,-0.4334445685582047,-0.10166040174382551,0.1309253457048889,0.28985558593844585,0.3703533472910969,-0.2162358406829744,0.38460222184654935,-0.3413276998865836,
-0.4112713058687818,-0.4207765825792835,-0.08801334109242777,-0.2013833386207853,-0.3926351792297606,0.0639406427415328,0.39749879413933387,0.28968136921808946,-0.12909414624217988,-0.07422100338151576,
0.272491975846562,0.35871729074883724,-0.2251064915992357,0.29383418907848,0.0379103171149145,-0.16435716852913076,0.140353993590363,-0.03811200207735128,0.3660647879030423,-0.120955667415777,
-0.3113007251682703,0.3696745414387115,-0.1281422880230442,-0.28848545862574276,-0.1506271753402995,-0.21112586860911883,-0.23682752263684848,0.36631366410823896,0.34564638339324427,0.36431729870217244,
-0.01575765830262971,-0.2219673019566648,-0.21362482108281688,0.47230618125911816,-0.23100160469951325,-0.1271608078793004,-0.36923039039065614,-0.3713491358928903,-0.43001063038299536,0.08415369695597066,
0.05769016819128092,-0.3490405338366261,-0.3740110788230974,-0.42782343314886156,0.3304693556761739,0.493578477096001,0.47346530458291225,-0.2915725993441491,-0.0714356988761338,0.3064885573235698,
-0.3782381797452142,0.49573043020905455,-0.43534587540201924,-0.30006891255955825,-0.22500836380998507,0.1881206203968905,-0.04693942748938949,0.19947745460243388,0.1148004814090684,-0.3878571500607812,
-0.3739677042421832,0.4550163266499197,-0.15950369446530055,-0.065666559878361,0.03106751028363211,0.3576357463401873,0.2200479171161064,-0.3392770546469658,-0.4042612429429874,0.4271335225277861,
0.5266381767562841,0.3149373126475654,-0.1136322143379635,-0.17098786591215936,-0.3853285688390594,0.4825978234377816,0.11094120450662294,0.3927880173424942,-0.3824361321591001,-0.16523801957328074,
0.21024630623555854,-0.11568195299648296,-0.04809199667570347,-0.024096484036041043,0.3520399271360195,-0.3638699757586753,0.04397557873005938,-0.38773858870659245,0.291110670125262,-0.28089200019668614,
-0.009610478165410821,-0.36973046114585517,-0.40936795670081905,-0.1790823009348815,-0.4714831762637351,0.14871483230326354,0.48853254938525414,-0.23901081580186417,0.24139312914142755,-0.04110491089995421,
0.3216231434420287,-0.41713891109237416,-0.0822730399264996,0.47055104516446605,0.277014666970326,-0.2511686035772069,0.35574041111915206,-0.33504888932114013,0.06668017190682261,0.017147895554893922,
-0.042255615004379556,-0.49274589793060963,0.11118021365100889,0.1333133441918122,-0.1289678830428698,-0.24434081626216664,0.3245934920180398,-0.025686918508491835,0.2698795047414713,-0.2312213347286505,
-0.4546349345116133,-0.153464335714439,-0.1293057088348148,-0.32473388235989403,-0.19705408107488678,-0.025302161589910076,0.3298205005177149,0.3956012525234659,-0.3201400911278456,-0.17635562535633117,
0.036164165991673526,-0.09218696240582201,-0.37406939542428164,0.18021466600343192,-0.4489028088873117,0.42374123772491723,-0.3853439014666273,-0.4234226342767146,-0.17241793609835532,0.31683608915981054,
0.4620994832985309,-0.3331471203739643,0.019493324683487565,0.11981525702951916,0.3425164000557709,-0.3125444204640203,0.15756562762659482,-0.44436202906857764,0.3261666136653499,0.49333824745363025,
-0.13894717246074886,0.3834817524119967,-0.4135353004932655,-0.3155438345274372,0.11839590843915503,0.4404591292521336,0.3870500544683403,-0.13733949028151674,0.491289840298553,-0.1266557483748283,
-0.3052547489319769,0.10012003551537428,-0.3123398979096369,0.22608138761598534,0.06446528780346199,-0.10216060201604273,0.4304415261512278,0.16808080626901944,-0.4404588990006578,0.012506248184165712,
0.005396579424755144,0.29817092373866044,0.3924599600730595,-0.4775929240697828,0.2766722123010462,-0.2632892540021879,0.08058570257189811,-0.27568520403056673,0.3021125400282811,0.19332151232150804,
0.3060131492433231,-0.30544778154324165,-0.006464223236358373,0.33122113932246783,-0.3596738659123644,-0.40526291952345317,-0.3258199017144218,0.22385508945901453,-0.3786690519242884,0.0993067130861748,
0.41218704810958007,-0.45607916993686387,-0.14236984359592528,-0.4728491211228683,-0.24807262277716458,-0.27924838307318073,0.1308499174425302,0.274464278279279,0.26931618173100264,-0.1576827136313882,
-0.16035975390139945,-0.13912079137242306,0.23896746252034506,0.37198759768365997,0.3334977704608044,0.020981809468284318,-0.16558132486858546,0.19951040328746483,0.1680038381112019,0.11527894203388944,
-0.24030363476821914,0.28957615130775227,-0.1334456101316901,-0.41809138248190814,0.33379869615757085,-0.1367363471617477,-0.28207089926713924,-0.3690623934725438,-0.07393455115957766,-0.055251100557757206,
-0.003150423218630501,-0.08474162878994405,-0.17247226179579636,-0.2059888712316543,0.34418776330417516,-0.0433144697388651,-0.32205587753936343,-0.0509225898474006,-0.4669897750728493,0.11864708604890617,
-0.027320909078476185,-0.38555563195504455,-0.10735380980471235,-0.34054282375624756,0.027129221334310772,0.3760666918663606,-0.30392750986605954,-0.23441863520909872,-0.13436319533780652,-0.31638377549411134,
0.48739615600023733,-0.25348601674301124,0.0694225695976656,-0.13717490410371003,-0.24754294948568925,-0.10927605720857449,0.47212499045590606,-0.18387961998458432,-0.3668753542143075,0.14360955833572595,
0.25595203308923575,0.1739899912757581,0.3741891111502394,0.1641091518546898,0.24733311576479822,-0.22135082587746618,-0.42192628395979026,-0.2545004459445166,-0.27443609266669705,-0.0843044394017654,
-0.2248309470912979,-0.0616011326608865,-0.4231142838575569,-0.44818168670360325,0.4910273392990002,0.3056023716028352,-0.006957203110605919,0.3640308972600238,-0.47816838976120973,0.04213144604600163,
-0.3957132448697198,0.09712937656684313,-0.28353925389750945,0.001516928879736456,0.4798317513650456,-0.4028393122220917,0.22268689186296847,0.2607153066711384,0.1760402668683257,-0.4709060002933398,
0.23444893337666803,0.1575465174026997,0.423933195182822,-0.45764327011428124,0.21400672211925306,-0.2835701652658645,-0.24910052182988274,0.24140513161455032,0.3205641242087877,-0.3528888044074243,
0.04902969876891781,-0.05141601346988642,0.03227864637424161,0.009428893314125652,-0.2904320076889678,0.4216845194707233,0.4964887174704331,0.47364813707556336,-0.309597747993503,-0.4563615358058265,
0.15534577518377307,-0.12165415274951993,0.40430820157014413,-0.1536627713622683,-0.457846749050433,0.2116432690102989,-0.35277680879901463,-0.045831189198555874,0.23975820247461238,-0.3859488495922948,
-0.1274094316818692,0.30921611793682824,-0.4688636926829717,-0.2746704993864093,0.09237692247138969,0.28677860951222556,0.29152375884713894,0.16618321253522594,-0.3601176629127666,-0.32058735706635744,
0.2993449612466577,-0.1968089012878147,-0.18806622249581575,-0.345280997310232,0.03489773456258897,-0.4410358905457087,-0.08851963271039008,0.16323514979839476,0.25742648979154525,-0.16709874296320593,
0.4599919198136359,0.3361774412025272,0.4973313706313454,0.4725964304601682,-0.34269085392348314,-0.24764778108585853,0.39099480731305436,0.3274428850981736,-0.4647495804354471,0.061979251796188406,
0.18867628926582738,0.46405328520470385,-0.2812841916483167,-0.014276619393859819,-0.3946813898369399,0.029195345510171077,-0.22570916709071487,0.04439637163790318,0.12280233383542724,0.35076776149901207,
0.26938066633917385,-0.39479570368607053,0.11766758178928102,-0.3656885114544214,0.08906077152118162,-0.27632723996776243,0.2109126052560215,0.14888166937236313,-0.45451363257884847,0.4034007990869731,
-0.4145702088033604,0.46747508793331166,-0.4048434430958124,0.05504433911038412,0.17054126785417664,0.34140504752367873,0.22731702274777665,0.40677711307136155,0.12257508946063923,0.052121457327357734,
0.27272394966184654,-0.2131477608792066,0.022087686351026162,0.06530785313231148,0.3704607272780715,0.20653934568059515,0.13112598040657855,-0.1895368479193715,0.23791610094317803,-0.22490216974286628,
0.123955066378823,-0.2108446614198501,0.17538002273245376,-0.1201886562470187,0.307631250460627,-0.16154045411877466,0.19221741090328087,-0.28697486750846873,0.19105362709749377,0.04462040085388482,
0.09357665036534453,-0.04986417145382302,-0.14572508383774552,0.3361433328401971,0.3147372616460206,-0.4271145937764589,0.004368247366848497,-0.06951817151205962,0.38844707250548444,-0.42832659453817856,
-0.0822034041871834,0.10142536211882944,0.205558516308431,0.1548533534834411,0.0024526834375041056,-0.3917659643518027,0.19632647703796555,-0.25878140402879546,-0.3733781611830172,-0.2946573850182826,
-0.025320245480838555,0.051791504230822794,0.4450618774959363,0.2975057978909117,0.3189358969182281,-0.18020102633098256,-0.03991678249899455,0.15097349360437218,-0.14339817248364184,0.011002477521672716,
0.22325534551084383,0.11545882497190346,0.20022468088340228,0.0775674760640505,0.448808667763998,0.37712059608270854,-0.25587833360699186,0.32985755211829887,-0.46176414151729517,-0.36624937245492706,
0.03680603717073723,0.5087900311717125,-0.4287113378892896,0.287589296750664,-0.28122616526458466,-0.3770299598652946,-0.22029474303329052,0.20964202913139668,0.0036219790249478827,0.21321086989317153,
0.19022245148268446,0.042908555071644025,0.4616488371907918,0.347121194376745,0.18069288893179178,-0.3613177470031204,0.056901948504748764,-0.2098525065335991,0.47965425866782496,0.3688790554839265,
0.32693605064742604,-0.08583558834081935,0.24518531131128368,-0.44577658285329824,-0.14240333413196435,-0.02123823308979552,-0.08707685045887213,0.10994083090692272,0.35924352772342266,0.01981219504749054,
0.16152347157382865,0.28330849873162045,0.0398566512065244,-0.14087094832799885,0.11724368862929221,-0.3827009944637822,0.23795477388825267,0.4241102677673573,-0.4481981864743035,0.43055461880084994,
0.08081166193416953,0.3162443838615237,-0.057349304986820206,0.2292053553181175,-0.13986979283321632,-0.052390753463297815,-0.3388592527460501,0.03725883106278524,-0.4660311292620705,0.023095658056967786,
0.10695909100930409,0.21100968526870062,-0.42416108564068944,0.3581623735898182,-0.3142198024462273,0.07814652884656208,0.33223310246955023,0.48239273432824215,0.15867744692146632,-0.25641774206654816,
0.2977287088935637,0.49636771604619906,0.38438676511581393,0.21432748728995113,0.15462608994747273,-0.12256874716443608,0.2992481137970921,-0.11003562435678599,-0.01415517928466641,-0.028444974206229937,
0.389577458765656,-0.19256451884564538,0.28839097784514217,0.09383109669882422,0.47832666773303484,-0.4186650087525645,-0.05637660384707693,-0.03966330747899375,0.07544605219828278,-0.07670695999063044,
0.4729711460504419,0.050613904392907465,-0.349291129826889,0.480376017674501,-0.33076359937524524,-0.20274855495859775,0.02766394994225008,0.45436257545982567,-0.4400913748984032,-0.382830091530908,
-0.08299640161366592,0.06829937026039239,-0.25891887405666003,-0.13720206066049306,-0.46073957348807726,-0.09223111819851652,-0.41123215486789655,-0.306043737906765,-0.31670472791426113,0.05252811170038792,
0.13030029884057748,0.36787903973333036,-0.37655397790932305,-0.11491416622709176,-0.16068495744866584,-0.3480378061434887,-0.07908644241971825,0.0762425477528202,-0.34822560069861236,-0.23505948651075384,
0.42517361378922686,-0.14091015854430555,-0.2857976286882951,0.47159437611292393,0.03397119929588423,-0.3635313421660102,-0.42349102617385587,0.12053163613203846,0.27888625932749117,-0.06337007854524879,
-0.18855919208736774,-0.48814998197436466,0.4277863576214171,0.39888760356762154,0.16520815014743934,-0.40624971465094334,-0.37055926327186156,0.4838227461505671,0.3244550601889831,-0.14919697073933594,
-0.29118927023271735,0.4221442857393082,-0.06452140121048613,0.25452864824845595,0.4882986594805382,0.017708712430293396,0.3672400513879109,-0.2454892043712613,0.015483697836723494,0.39395107366308524,
6.818537715357308E-4,0.3093725798586215,-0.3637606317840394,-0.24857093963858864,-0.285840037474425,-0.10459055781223753,0.1052178387025242,0.2943273089418032,-0.03810858986966959,0.10021206173420137,
0.3183210479201926,0.4821817093764655,0.1366083845810993,-0.4782833203123035,0.39977712173742386,0.04975450716347439,-0.18472467709324492,-0.12313222272974256,0.24242636074363383,0.3389858174675376,
0.25639769819684827,-0.29043934757146633,0.03210991395007598,-0.1977928764692691,0.4217845293947033,0.07333087458822955,-0.23118897489859655,-0.41041339771261987,-0.22490650500617507,-0.48025225708522473,
-0.3041766596594059,0.26481749419698913,0.1485163603904826,0.1509772788979232,-0.4247974053075116,-0.4073360273297232,-0.21711745826505616,0.2711007602715741,0.18196728479524515,0.4523592796681958,
-0.42418321392985736,0.48059186380275304,-0.03754658270748941,0.44707286621731684,0.2752282587856831,0.21709621133162485,-0.32041177710879065,0.08458121868070166,0.32216514701786925,-0.18465005383690425,
-0.4637404045865996,0.1517597965572861,0.49868740210404605,-0.44101687724600636,-0.42718710767843715,0.2741491623512211,-0.2971711767684745,0.32941888297529465,0.17490217739463954,-0.39034685375786726,
0.4664004053056642,-0.2822871409343623,-0.04339449050615343,-0.03419843634692376,-0.01716452741144222,0.44691411622511973,0.43069025192341115,0.37159296720199453,0.30326113116717107,0.4278898225289093,
-0.4607674395339988,-0.4285084699085596,-0.26906042215168613,0.3752883959373484,0.2727294937251814,-0.25757812692181686,0.15861518912134587,0.43924372044621246,0.4615490028075293,0.1325189344672107,
-0.29657529812389644,0.03545311663222859,-0.4757025546022747,-0.3729650754409256,-0.14813496050352684,-0.06079337063218084,0.09310064333943226,0.07350419721731961,-0.3149214016398034,0.11494119514930518,
0.27376094193028777,0.49277870216343295,0.4067664375658737,0.208856265114646,-0.18689010730476643,-0.032037733803334675,-0.3918228367034689,-0.009011065378545744,-0.25594971139436407,-0.20115330394525058,
0.26810950441829456,-0.2118686443796547,0.15049674032467011,-0.031570808366195725,-0.29400303843296044,0.22245514257786395,0.12217860564726214,0.12114914420705136,0.22057860010184135,0.428542868523747,
0.022306102059286417,-0.006550769394150943,0.2800401358826409,-0.3716601933200164,0.49445895721084493,0.039872611993049964,-0.29095025201329267,-0.3391617424207867,-0.45358401832309564,0.11388254537618149,
0.3156346824593283,-0.04835585333652209,-0.3685247773779639,0.35219516598869793,-0.10772536975246849,-0.06912005270463335,-0.4118665338551367,0.3585012137495904,0.08041837954396408,-0.4166147714989265,
-0.45715092625305775,0.38087322649816846,0.373309579582691,-0.16963929542911974,0.08181665399632068,-0.21140191129930944,-0.337789299998994,-0.3123521260659818,-0.2937402594059313,-0.002167692402217172,
-0.3444930518421544,-0.09255645670530405,-0.3800433108817036,-0.4021616769263109,0.2265668758701076,0.03280161571150905,-0.37300203906873497,0.32801237892832585,0.34546749430889395,0.08353429137147211,
0.3847422027602076,0.49842017016567186,0.31328703565473104,0.002137903329481858,0.15820214660005028,0.1908317877712018,0.48117906650877657,0.18833636281552876,-0.10275424271683262,0.1281485357841728,
0.01564269213849534,-0.01901308488036657,-0.11704095282357978,-0.38904357258367117,-0.3336131604060662,0.21617971084644869,-0.46690681116611543,-0.03924429826301725,0.3357572854513694,0.1454958766586043,
0.23309355821874977,0.20633998759332464,0.36776465911509365,-0.4280192681033868,0.028811849535434354,0.450744413069019,-0.21218195967698208,0.09235359983515619,-0.228221726944637,0.0456276465363587,
-0.40702018990168926,-0.37958253805858916,-0.4096022633819503,-0.004168530674323888,-0.3380393095862182,-0.0028041422648581306,-0.3663224104077912,0.2914310737941565,-0.27191559742263666,-0.009616966534295569,
-0.24013307457718133,0.44585451704405776,0.40932660964061546,-0.1132015901338609,0.04138577671840011,-0.2662386937038041,0.4528982949864953,0.49061267956000015,-0.4370232060126519,-0.16776723188729012,
-0.4404724615782797,-0.35797460080019816,-0.3795934919990913,0.43973750512331744,0.10027969354659108,-0.47629256209573695,-0.4413927252315899,-0.31128309984218855,-0.3753305733846764,0.4824759901593432,
-0.050378273755077564,0.3246393482358757,-0.2577798644643014,0.31143456172653894,-0.47595064478115645,0.3150314728406753,0.4531770703541463,-0.4793504102683288,-0.4737698287317924,0.37688357049992605,
0.4210353267053325,-0.44060246011677845,-0.1395886782790456,-0.3308852121541324,-0.15789707219256402,0.20258693745780867,0.154392742332379,-0.30899930913403667,0.47825591534682377,-0.06423461282540983,
0.20566953533362137,-0.17900445590748226,-0.33151421633623473,-0.35844543731598516,0.492694331716031,0.41995200027632235,-0.19822555393606905,-0.08975471065088943,0.4536043832159139,-0.4981608936166041,
0.09093566474779409,-0.22826132686348763,0.32001201544923946,0.16595120289797585,0.13777592154659313,0.2408101360567482,0.26749225452221875,-0.044995654037178506,-0.24371516972570825,0.2671418536559533,
-0.3588620692196595,0.08846046599722701,0.4666746889441059,-0.36897355446661956,-0.27237744327629054,0.09732236234124358,-0.2764104738908423,0.49219648552380085,-0.22014951373495775,0.44999828614601634,
0.11104001970264177,-0.26352411837275425,0.14788794158367757,0.05338429305378334,0.2959481436682413,0.18003020605944198,-0.39691982228393907,0.029863106935291484,0.23225571311063342,-0.24748898878438708,
-0.3669973301024561,0.4717451716373843,0.040415390056608276,-0.3844019725637195,-0.25096021908759814,-0.08338247802516818,-0.05428083829037182,-0.15705461027330717,0.16870972496640166,-0.0920313231582871,
-0.046545089941076125,-0.10633723390185153,0.2942170387419884,0.05342756630018217,-0.3191943791611203,-0.4116713740151568,-0.15333775726944648,0.22124440627638883,-0.2614897688016041,0.00997862273566095,
-0.1704007717345114,0.1440512500068964,0.2343769027756621,0.4894771715224526,0.19349436713979326,-0.39503580020304,-0.10918116177724893,-0.2005743341635313,0.3973359196787317,-0.030753832969459268,
0.2723950098417829,-0.0800930291066877,0.13498857828590438,-0.42378000203233035,0.23767345797286654,-0.4113324542775339,0.4847944963383915,-0.1613083970177343,-0.05867630631346105,-0.3840014246786566,
-0.08423048121494306,0.2102035399603521,-0.22887027626119869,-0.3707322693833209,0.4865579404287902,0.031413294257112964,-0.358228817076133,0.4598397426898372,0.18198922309326251,-0.20151172235852743,
0.2610983010694012,0.40826060572463707,-0.07539780938503422,0.4066568528219712,0.21207443495779546,0.24475735213194885,-0.09909161773816695,-0.1589034192406086,0.22369209246455435,0.17193108371565477,
0.33369813121512354,-0.31574901260389143,0.10075343610211104,0.09869961304208946,0.20915528696721392,0.016236062480322,-0.41902355655563095,-0.29246474606512934,0.2609056653856332,0.1184090996228528,
0.5164381893824636,-0.08138225795283349,0.05663386926318547,-0.20843218160240187,0.09425621948280034,-0.1648164955293889,0.31694565779087525,0.46716587730229847,0.24031389160828348,-0.1560809930494004,
0.06481210144923756,0.2879385877772558,-0.48467392349361316,-0.2504634033011391,0.31625881570070336,0.34861734783909876,-0.1920999726496479,0.25814363273234225,0.12671362247646267,-0.1496124331089232,
0.39252832668882576,-0.2133749136012235,0.2927585537322371,-0.23051326077593814,0.41684169421853506,0.3748546749242494,0.451926462637151,-0.4457505654569915,-0.35594670118499,0.21590191793720812,
-0.16787261561455896,0.4364925431158639,-0.13756141521604295,0.35918929559711366,0.22028762149866812,-0.10784583490239362,0.20428880388441734,0.49371739514541885,0.43916158429629853,-0.28767057064654367,
0.1493458475133121,0.48302058304913936,0.2561403517145678,0.4042817443346714,-0.006348243786367738,-0.31627951406748395,0.08844457779407501,0.16427497533734764,-0.014416989573845688,-0.2774548519660354,
0.30018721203962345,0.18883957821803868,-0.4886402845795329,0.028660916771948274,0.06765030711785053,0.13753691746780164,-0.008916604644880428,-0.3618836992614082,-0.217970137015564,-0.43764691751500495,
0.4528192797934806,0.4278127254752351,0.3373042066154144,0.318553878032792,0.33237593626816325,0.3489514646069898,-0.21142696630929939,0.4041636776891927,-0.11303397422469906,-0.38833894489690945,
-0.43284911097043266,-0.19719506231378123,-0.32866710763124535,0.057926126985336834,-0.38793543271645253,0.2620424791859734,0.16085600416192875,-0.3222635292012254,0.020938731153244686,0.04264090986819399,
0.02904620453254745,-0.3140984748265297,-0.14415143491961643,0.07306968554620463,-0.31708102559900736,0.10910016421307787,0.07101126751831767,-0.2860587118906709,0.3262452057844141,0.17129817049706486,
-0.1638725491868908,-0.3034635389913289,0.10947253824160118,-0.0793032878256072,0.3534913568634225,-0.2856186540271051,0.08263125091564391,-0.07212008869717776,-0.0910435217357663,-0.3131546589414923,
0.45845078690367097,0.4415326630337916,0.18130564552501802,-0.3039083612985014,-0.23809276978010352,-0.043507564331911046,0.14753885456506569,-0.032400950686607886,0.11478670289392179,-0.244382424864984,
-0.16811185037435314,-0.13203892388196126,-0.48086646237387237,0.14745436935790465,-0.3405588654721543,-0.3690447392069399,0.14051832349249765,0.05429078667354122,-0.12135659063243955,0.46620324258685353,
-0.237497025856513,-0.4611270567507136,0.35785934652707974,-0.320802853506331,-0.19917741008222,0.14716126798676585,-0.1760669045417371,-0.4217922074798097,-0.31478765300956546,-0.14673633847911638,
-0.4600845613531883,0.47403670766068884,-0.3161858009560976,0.2640272165484542,-0.4980713844010216,-0.4589424935559331,-0.1841235705822587,0.12178323392293022,-0.1660874375186644,-0.20098079950489156,
-0.33371426243930125,0.44609056366699434,-0.23905450784280036,0.19683957709266917,-0.16310014420561378,0.28298405377805036,0.1849859327950113,-0.022037365392413785,-0.17100108930898403,-0.18245104605323387,
0.5551368043050969,0.49358765547600775,-0.1998803999290657,-0.3087455000580597,-0.4407647830755475,-0.06544740034634487,-0.11445630225657953,0.04153497649653014,-0.07976679595513157,0.1806301600455607,
-0.04047027932193937,0.19551451794292765,0.20463725980689176,-0.30845988101380417,0.07019609193564384,0.4922140713867722,-0.3471412031830138,-0.24220633915284817,0.4522464115234182,0.4395073670462108,
0.46577017504558677,0.47135978939945355,0.011155421394811424,0.3447066677000772,-0.04060315205899664,-0.06263627064797592,-0.2962086035153471,-0.09409345330081317,-0.35086469230615125,-0.48552699356581325,
-0.2688556794953378,0.10748731841700701,-0.17045174623894138,0.1604471896141194,-0.3910984747311488,0.14972451286428945,0.3062717188860833,-0.47217847475784996,-0.2629146880307669,-0.26806326098070765,
-0.10301238662668132,0.4789387169212371,-0.2997710329138021,0.02980220840374137,-0.0664671287222112,-0.2051883572886924,0.5001070192658633,-0.015859870324849125,-0.30665043338650966,0.37463537215332626,
0.34060432900816456,-0.4394050152036254,-0.3166986130303637,0.039629656474506655,-0.09112515044536572,-0.13397736269344132,-0.020880336895497665,-0.01276572941643359,0.14561935581201763,0.05623830137479545,
-0.20157075581069125,0.2931671202903297,-0.2168301783662549,0.044758477563269325,0.2321666280945197,-0.466499096309384,0.07197497403438005,0.29729042688233775,0.5311173190766143,0.3561785273563573,
-0.0987025163673185,-0.28492836382033127,-0.3015584732301231,0.46726420576735006,0.3206246057951645,0.5732883338781117,-0.3033126085891157,-0.050904034454887226,-0.2483136923220585,-0.47394146973453843,
0.3680310187937295,-0.4982129603963909,-0.22149262110752432,-0.13640718337604443,0.41915485093107346,0.3885581999994989,0.23349198645905628,0.3140484094766429,-0.2740081325268706,0.2949225471186385,
0.20134413957556677,0.28099838615564765,-0.4349037535322902,0.0684213270151767,0.2582199381683303,0.5594064324576505,-0.48695109860238783,0.1190960273133349,0.25920553483244785,0.32576359550473516,
0.012463626655803013,-0.021300504295214042,-0.08355144829668519,0.11387796575149935,-0.26372502079958354,-0.31794926617424374,0.2995702586635944,0.297914765946301,0.30090144432411986,-0.3156402531962295,
-5.221488055589917E-4,0.47421432531245045,-0.021871177763281926,-0.0451176324994496,-0.35768300021401167,0.3626713835596967,-0.11648396021430044,-0.38761487350152796,-0.041923793716442566,0.03344792637066809,
0.13206836623804416,-0.3372240514833974,-0.06531679192457157,0.48356375539948265,0.3159012938107488,-0.17501954435126202,-0.020838260523899168,0.08632693809005276,-0.31689221549495095,-0.457719073837934,
-0.31432264037641205,-0.38180450973210045,-0.29004096169694554,-0.022931859508611045,-0.14471931460815993,0.2547452293934329,-0.3406711199786125,-0.4099521589074238,0.07216988367218803,0.35081185391276826,
0.11225913827118426,0.10110481348993618,-0.2905756891873685,-0.013351332673135622,-0.27124047315244104,0.2248711481023499,-0.3956550713578368,-0.3933641021124349,0.3545115148326027,-0.05558271553702526,
0.46092467519385305,0.4042819931491992,-0.021905092409844697,0.2058169079853373,-0.2608550153388361,-0.14661190776563246,0.3567707755040482,-0.41015695659057,-0.17896275967144692,0.48107389363005076,
0.3671759817034943,-0.430627179013891,-0.14399482038167663,-0.417479902639398,0.38364861965932334,0.13901116950794712,0.008814128580039677,0.11940242564676425,0.43346847721525,-0.45853217537730045,
-0.2411900256621787,0.12343916037294268,0.010217430470387097,-0.36160419546905614,-0.22524442714851292,0.3442141586920816,-0.2657244116838844,0.03142221958102572,-0.3868139510632752,-0.17220807927213158,
0.2856815756698139,-0.14997792245426078,-0.09751560224306102,-0.4213503748347202,0.36791975971428603,0.17309061299351824,0.3703759771536411,-0.0032737717140702755,-0.1284182492397714,0.3429338052330007,
0.2064618257899863,0.17943618914254622,0.07178274307270671,0.14806010259708335,0.004257026785143947,0.12103082389181052,0.4021773087297311,0.2155944078720392,0.4411576207279224,-0.4174522395649669,
0.3018783871350864,-0.33640431080143524,0.33940892770842834,-0.23494011371261797,0.46692994552384925,-0.26212569067802804,0.2895066381236326,-0.035651138983896914,-0.017334269481646604,-0.20008468055005676,
0.36789637970706796,-0.04975741514301963,0.17735220141095226,0.21730789806877648,0.34661503012892114,0.0974991029393275,-0.4960059291974512,0.37298794225814086,-0.20334016212909858,0.28919113639044647,
0.25063743722088583,0.296362165584332,0.046304605974599476,-0.2002706472284921,0.13655931412630373,0.16996887555230805,-0.1393350125521856,0.3874355090345773,0.1855034253054135,0.07756217171230087,
0.38467049523907915,0.057163725594498636,0.38686573922934214,-0.008078326813949968,0.41172785993551214,0.08211384006749274,0.48673851674551905,0.06634100423495137,0.1355858653694816,-0.22197784716270985,
0.2411506737527055,0.36385898579306547,0.06596031820685558,0.03389111900726487,0.2013484541766314,0.04966785981536989,-0.254740513660916,-0.3592600718724018,0.07513961156016091,-0.15548840725428395,
0.16706229137419965,0.48958115528456275,-0.2049375380007593,-0.15738392667137882,0.30601438694244876,-0.15208320048963342,-0.05905084407873895,0.03636020730622781,-0.39790814412413567,0.37440754952993777,
0.2407947769960272,0.44585910550020824,-0.1698861154477255,0.3464416276811202,0.048643767292540614,-0.36671869927737777,0.34196731828525156,-0.22551315608380423,0.45863156288988666,-0.33105419042254164,
0.47363153840812167,0.40412036498068565,0.37888871392744367,0.1602797798899566,0.3975075968158818,-0.09313527082296524,0.4449028040490602,0.39871966648733326,0.05016177758837443,0.3301278808216373,
0.3895863952739678,0.4338284477543217,-0.07247947196909184,0.1900956133424031,-0.042203440144102586,-0.08981210513330813,0.4153477816106907,-0.10656716428066226,0.32377304576683014,0.41371178083701515,
-0.4606342519485011,-0.17724872571068637,0.26683718169414256,-0.07913002117621636,0.11552692868933327,0.13021685921974013,0.30424166290977783,-0.18840644622323657,-0.49886972940367663,0.14655740314484758,
0.3360608604644306,-0.3500422238657828,-0.09659868156728585,-0.49638232058702786,0.06221085208365827,0.4585766091500374,0.2078153718431312,-0.49500322363585825,-0.09694335287256078,-0.31636121089367475,
0.4769513418895074,0.34818260704107656,8.138570579605249E-4,-0.48940767874870683,0.2269297911969382,0.0074129078906793175,-0.23771251930082685,-0.28092486293407465,-0.15480408977795992,-0.10864969889784697,
-0.10624799332968433,0.4633059835677498,-0.47737241758169474,0.48741625154645124,0.4772149523102907,0.4158237109056961,-0.29287888707339854,0.1325874217702788,-0.19231760454711513,0.2087777387092496,
-0.04711746004407631,0.3918121261615057,-0.2575433054088545,0.017989024654385042,0.2773177019859914,0.39517463029728717,0.3583248097424166,-0.0304944831215354,0.29648558163748,-0.24093593188704798,
-0.12228834572749656,0.2538640210725381,0.3102312887705716,0.3153194523730511,-0.2427138290304961,0.15661616111317925,0.27977939972121835,-0.00620866120291767,-0.008063788077564556,0.49397076090535347,
0.4751734133087917,0.1342492867747509,0.23610429273610312,0.13548020128570473,-0.10088046781858342,-0.21556130029179468,0.24101403767412713,-0.07968258933992828,-0.09737656289838606,-0.43823646733697896,
-0.30189423696871065,0.012356749020490925,0.2829735716840704,0.48336512972073575,-0.31731826386336154,0.2962540273097507,0.4226948443307847,0.3635913803879836,-0.20955336463512214,-0.4808329160689662,
0.45109915764119496,-0.31607689916514464,-0.14912034035314797,-0.24562196167622297,-0.21999864278294837,-0.2184931313509137,0.18309688651068673,0.29271682809295335,-0.5056452441017399,0.0769034871739884,
0.24962441563253504,-0.2908447657326219,0.041966827805063285,0.1038087412778934,0.4724034670288378,0.16824446979395552,-0.012495841421965,0.3509180290169541,0.19251366896371824,-0.48417096424958705,
0.44861277626383067,-0.45482864664519573,0.3389498756609861,0.239870578599839,-0.3705423877374774,0.2990978385539907,0.29636235397148303,0.1514329775678327,0.37410741210489606,0.11158476851064536,
0.23801748569704428,0.0062919024622106745,0.3921085423955023,-0.37151498341148725,0.1605136877711273,-0.39984169869622677,-0.09649546152214772,0.16499607604275313,-0.3240598353412738,-0.3008076789204648,
0.28219445314879854,-0.3876448305212047,-0.437123383984462,-0.30228991658484644,-0.12323002442840303,0.26628529480122975,-0.31083883739406204,0.3515807550323599,0.22139636526158188,-0.4679775156916602,
0.2394744974485483,-0.23712348221368168,-0.44688169007683365,0.11782730221256706,0.37450022390646626,0.25798402334495174,-0.04265575512870229,-0.30978521954888416,-0.04681930871815036,-0.21533283840490605,
0.3317160839636425,-0.16420553331023666,-0.2761157477601119,0.25360951914422913,0.4645087807258383,-0.19852652761168352,-0.3751817378421096,-0.09936246911699666,-0.3031040472394879,0.008422539001140266,
-0.036963467701473074,-0.25935560372383476,-0.2663515586019066,0.24682002263926106,0.4144265424915413,-0.1924139433072163,0.41422697834662303,-0.39935306074233834,-0.055294658763584977,-0.08125462672714909,
-0.3959857566164901,-0.036675988627169705,0.3912211763701898,0.10564303893918572,-0.4892809521386931,-0.4260894751125923,0.27122480909619395,0.11901135500993393,-0.30507306953751195,0.11910588263105786,
0.19189244161190347,-0.001612008015773268,0.4755466288472154,-0.34193590979919053,-0.19562383579540024,-0.0014616026382044906,0.3297275056626945,-0.04142417668745144,-0.0365915397836776,-0.16810277096151993,
-0.40761249376628855,-0.3991227083704239,0.12799254549986097,0.08510304583000984,0.06442240261047336,0.0524463034094745,-0.11243537802897294,-0.021501394408638127,0.2076193095677565,-0.32479085431660026,
0.06049803352230991,-0.04576388314304922,-0.3452490072916837,0.039712869229705496,-0.06980656975725025,0.3935344459296407,0.006719633938803113,-0.1113369059429601,0.3415517371723552,0.4244699133932701,
-0.25663581316860934,-0.4534737279158669,0.34188128892527403,0.23475886513426575,0.1732169759276017,0.47488203774682664,0.4532315903577302,-0.29770122221605466,0.0633300349521427,0.34714615272823396,
0.3983547608222477,0.008646537919822379,-0.12769332097621944,-0.19351933899997026,-0.09109477606450679,-0.22624379107665102,0.15411041338812353,-0.08088445254406701,-0.30062628997011115,-0.07677833139240738,
-0.06539183380701404,0.4026260133608967,-0.47838552742963797,-0.44032104217707424,0.2966441148439686,0.24051176110969713,-0.056725551500486936,-0.45223793134616264,0.1840195834610249,0.09462650737419341,
0.44815560311393027,0.43397124294478334,-0.0364745105401968,-0.3262317994071263,0.22815336652764892,-0.4680480512953112,0.3581079319844138,-0.31139056565513756,0.02319628360552694,-0.20389804620329532,
0.3071332246309099,0.27957395198753454,-0.002925211165045555,0.3190512052295484,-0.1406823612868281,0.28611832452918895,0.14612854342010947,0.3857776123275805,-0.34063473828932933,0.15768562681411843,
-0.46999094533535896,0.09110317759912027,-0.10644474929594532,-0.4354057293791229,0.20589339824539463,0.4394438957381456,0.41187560273747104,-0.48009219760099076,-0.25787729961699923,-0.17540609262092768,
0.07249497397677505,-0.2684773152891803,-0.10737402190660426,-0.12897868840096782,0.11036751901692372,0.30355506077507516,-0.1906741096395404,-0.4444054225463416,0.35807684915424287,-0.49326346579592034,
-0.4307139716707802,-0.2002983361367235,-0.23720130984566312,0.3829266866878009,-0.3782941908473006,0.32935610869903964,0.48356471262957523,0.28345271081516077,0.12878814999064958,-0.2761512726092355,
-0.04222834955779653,0.28110759336857194,0.29657890267377823,0.28800124745556727,-0.18984232987897812,-0.43137384458206124,0.4506549022587007,-0.24457198787412276,-0.4361067651793128,0.46724191105596036,
-0.014772185539926243,0.30277727867350646,0.23476727166008107,-0.39271164556066085,-0.12221436101048684,0.2555103427422098,0.06865369741119427,-0.2463711430365955,0.3063828338241382,0.08972764706091499,
0.06869928687113994,0.03088582256242143,0.22581616552484263,-0.05552304886685679,-0.33107314795280846,-0.01721499050933247,-0.3656977406507503,0.352019428425135,0.2950168786330992,0.009804809144672506,
-0.04236560220380808,0.14824121765026105,-0.3958233522591779,-0.21518106413353733,-0.46666877569345766,0.34132513369917056,0.044519116039302996,-0.35421177168333423,0.24343887463792827,0.06418730415753991,
-0.44775197702967584,0.4367824812017558,-0.2479078154205554,-0.2232747215351525,0.43522780381086845,-0.27316648606697636,-0.49791578809672354,-0.283888155581168,-0.2528504378861286,-0.30434837587365415,
-0.12106843985968019,0.3980152065847504,-0.14202465661253227,-0.3131039335378446,0.4390959006871992,-0.48012587654742017,-0.19819253637591047,-0.07483097874603445,0.02562053165568598,0.08473135329946069,
0.01848360128505571,-0.0012441750667227748,0.45405377489678367,0.3802369816211165,-0.0029954656636945343,-0.2043187718662835,0.3826546082568106,-0.2977221254712313,-0.4523787002323317,0.07893143002419273,
0.19489607840449186,0.21360062267698426,-0.43339322301302446,-0.2908376866539753,0.3845932505189298,-0.493887446226465,0.4283151931448085,-0.33831232243007714,-0.11541607527644741,0.37888666201992244,
0.23459090528828827,0.1641319351026722,-0.4099539400982494,0.484237474416036,0.16980301675900142,0.1611377707124448,-0.44394227464728314,-0.47478642431888096,0.050507562915042985,-0.35472260986058457,
0.26223829007106325,-0.4424922735537258,-0.031556278849781745,0.27176835416822076,0.13041813618718245,-0.029075892764305344,0.3837470261513722,-0.32113146619878674,0.025278559935921784,0.42189449966071885,
0.3971727115846656,0.080536510756806,-0.3083291351842133,-0.06546220803557698,0.47744901595890116,0.16655203304269497,-0.36844093800123556,0.4208090202871116,0.4141100347353176,-0.1744995258685185,
0.19692615631149135,-0.2334847208067333,-0.35368889217328414,0.383335903859106,-0.33784496307412687,0.27859650921530915,-0.04002345774331895,-0.44280411353512905,-0.3063821428928872,0.3424165017400408,
-0.15793564960249143,-0.30489507132849214,-0.08515211225109055,-0.2947676225249571,0.38211075336340344,-0.22039727063253087,-0.011172312601105152,0.04878365400286267,-0.26945549791321155,0.10623047628382301,
0.3943453045189322,-0.053359947547107496,-0.15592431524831193,-0.3957763210815238,-0.17922525883947119,0.326688703796638,0.13124497064825014,-0.39108214597880564,-0.46707856697254546,0.15035485616544045,
-0.14542265173111155,-0.43024252058398266,-0.4826592923448901,-0.42793723175385173,-0.20150300897925114,-0.4725642414153437,-0.4817538405283008,0.02639900495569168,-0.021097868418797273,0.23821138145255466,
0.2108789638133941,-0.27132803700376595,0.14052023216063994,-0.324633407426967,-0.08493535882597934,-0.18403168041198514,-0.19611407119152857,0.3009867505501371,0.34274691732569534,0.44856522521079406,
0.2992834055783073,0.39173196137112964,0.3574282016024125,-0.4073555868890346,-0.438494696519026,0.17502429661671712,0.019117925066776044,0.24429915917380685,0.003044784778259813,-0.3625294293072349,
0.4980243469446699,0.35303979582712863,0.0620603745908443,-0.3636676183205954,0.06695782861611592,0.039921309771804116,0.17519351169275216,0.4577315261939647,0.2517353770378112,0.18301474529870768,
-0.40432714688705784,0.03711436143701259,0.3172726069784335,0.2568032336179575,-0.4554823014732365,-0.48795836856651126,-0.2785683770025477,0.45368313614623235,-0.003603095288930078,0.4811883874467989,
0.14498713766533802,0.3904540809416899,0.483617882627053,0.0878686825906856,0.056938186809791576,-0.33285583411728015,-0.13552824533011465,0.4269725240755419,-0.4208778735157235,-0.44373471184555013,
0.09771968242669216,0.07337214851030649,-0.061063195415463505,0.3733315157227181,-0.3318576582048617,0.2555808221154807,0.2456965595011465,-0.3274363200902496,0.42949350680847453,-0.05071584076076925,
0.4702960098878253,-0.36148206579870074,0.42461661175774923,0.4375975890250381,-0.04915059854074785,0.34408857291848277,0.14385075061623084,0.004796497528863388,0.47003412122501165,-0.2065550167422784,
0.18602206109277222,-0.3635763555077187,-0.2855139314407048,-0.46092107292137463,-0.2832768072477496,0.18471334993661598,-0.39004816612700793,0.20314850644242236,0.3042768805972993,-0.10408332481536278,
0.4909369026723396,0.49847713963872303,-0.10426556955493747,-0.3324849580172822,-0.21947847801206774,0.05884435190723349,0.16538048776067268,-0.3776370768255524,-0.1523859696742705,-0.006574405330672002,
0.44874306112588924,-0.21029814190966414,0.041693373203477546,0.40111769187148005,-0.37599229689839947,0.012658762196158831,0.40769218410298425,-0.2528852198147468,0.46055385274694555,-0.32303479823922554,
-0.44741262181186625,-0.11989038656191797,0.38055355709463823,-0.24851757931720808,-0.11182380184456531,0.27452498463997144,-0.4076171715997867,-0.3314209075000226,0.2065775237404982,0.16514348018391845,
-0.10296267215978862,-0.07659654582199751,-0.4544643174183454,0.1127312211735076,-0.07307248680292885,0.03605258141950589,0.4564239320770741,-0.3778614324912269,-0.04183812544164612,-0.35905565838646397,
0.2018050504956299,-0.1190597223658095,0.32308433318103486,-0.34370126006372587,-0.1656881399764663,-0.2241012961657571,-0.09272052163885254,0.44865447669227543,-0.18143513772801947,0.22994008996349302,
-0.013209816196043634,0.41110786142096356,-0.22366182333644904,0.30338515845684183,5.843920267654352E-4,0.20665113213625577,0.40106431734521947,0.38294585143446763,-0.1411610468696583,0.2192341110814712,
-0.0482501956916072,0.15377880316304784,0.08277649191511278,-0.3197273072726155,-0.12124971609812958,0.16768168249993237,-0.19797023220613025,-0.0932810394245906,-0.023818117808545577,-0.40748637513276137,
-0.45564843563024937,0.05512905952397873,0.23960296920340607,-0.010609326534330086,0.1361264541861439,0.16473512398099371,0.34483760158138865,-0.49370630960353856,0.4574670067662464,0.3630640281025291,
-0.40232840326262687,0.39524042707243173,-0.032091602792391885,-0.45924720153493764,0.26484020890112075,-0.4202589497083375,-0.1671468118007634,-0.10386444538358011,-0.09419622416235804,-0.3026464258232709,
-0.12203792410431413,0.4735717057849391,0.3776282146903772,0.013545015297377441,-0.45681084306582465,0.369712483523636,0.490330803463637,0.1225950805520709,0.035151539292823455,0.41418976964718596,
-0.09748355766812632,0.3679749467585899,-0.05682979140610692,0.05221130750180515,0.15745056290796608,0.19280966951875692,-0.02650331423330433,-0.2573713906790654,-0.08891849804951421,-0.46724183623591237,
-0.29183949035411055,0.12379954983920945,0.20517328752389524,-0.4208729337479577,0.3248258451015023,-0.24574862390363192,0.17045667285600863,0.05291081136558316,-0.44017129670244376,0.3222590116636906,
0.0335319795945785,0.23366642050002034,0.0416758898203434,-0.25638485671368605,-0.4170967118298131,0.3322525028305141,0.5321848370147163,-0.026410902807528787,0.038462721088201826,0.14440431923917468,
-0.13886197349347026,-0.37865727690687023,-0.044141303554400664,-0.006215129893819762,0.4820327733664226,-0.11876752283494353,-0.026870696107586054,-0.3111714775924221,-0.17172414499775743,0.4829897153117952,
0.3445587668233674,-0.3970479251920738,-0.07056413799303603,0.0838727234791178,0.25148459434316406,0.2046169805659537,-0.0394791160885758,0.3212341398671898,0.26694015411869676,0.3296619320329072,
0.22306767519431925,0.370408545939848,-0.12791231757360627,-0.4523381806137008,0.2627489233712707,-0.1459811275306311,0.10412447882427936,-0.05167722783672956,-0.11381656053085468,0.1251537844680608,
-0.0832102530471354,-0.29514005220101464,-0.1656604646137715,-0.19563660030240965,0.08603341117600288,-0.33297767523389243,-0.07367297516423557,-0.3553662976453934,0.4739215375358472,-0.2667615461726278,
-0.14622843783377923,-0.00896464496691181,0.33705275179235133,-0.46768301455159045,-0.018426299551743536,-0.19799277327527712,0.2764191737980297,-0.33636884256691796,-0.33603821378181065,-0.4918130882948786,
-0.4764991259575561,-0.1439328050382796,-0.1299690401966937,-0.4650727645974357,-0.20878250991965272,-0.21969839941724895,0.06881783625994121,0.22717525547386927,0.2823637275167475,-0.12458589659581058,
0.43369243130050483,-0.22006933314275537,-0.49856048426574334,0.3707721330124554,0.3471820120215845,-0.09880601522380963,-0.07937390847030111,-0.3481467495920092,-0.06775859504838502,-0.46589591562037436,
-0.3232446057624596,-0.2111230564051843,-2.0483765463147962E-4,0.47063675659412374,-0.46987953130219445,0.20371639375318537,-0.3527998780273405,0.10330140605155899,-0.11931447384059644,0.07195758341463206,
0.4168221491838519,-0.43235623566967113,0.48064108938850253,-0.3443979156766272,0.2467327965397144,0.4934207926885447,-0.3166580495058882,-0.10187682774053687,-0.4290064520851844,0.023679071146283513,
0.12022092179832153,0.013036901162710562,-0.4547491476980726,-0.3859848298756274,0.04415862943993098,-0.48416483248089676,-0.40284467149721903,-0.2362258878372436,0.43132881053467853,0.2620141964468731,
0.3929512109728792,-0.03608873603085716,-0.21396454707713997,0.46026342657790187,-0.12023433723117927,0.46681711754428956,0.31356461588449147,-0.03723568183492809,-0.13844754463933673,0.05837527965839295,
0.40098413759541496,0.3161122859829064,0.32546330741269786,-0.07829004933001514,-0.20704810234158413,0.441753852445366,-0.39506083209680326,0.35441834371497655,-0.418317693383745,-0.4298032404694592,
0.2968659872532424,0.37443554568083676,0.29254928627873034,-0.386104449674892,-0.06313131521034113,-0.13531500918696568,-0.05528978940273501,0.1917746941985825,-0.0458291355134468,-0.14194527216388,
-0.34902826766297196,0.4374248768641798,0.17367101121325967,0.262070170605887,-0.4970052549136296,-0.11034134244678662,-0.28583948899230827,0.2619178290254963,-0.06655096743767054,-0.11575636705490806,
-0.5030118528456308,-0.29915788944771177,0.3510324027340295,-0.4785801598419418,-0.26604898107301356,-0.4214450798546408,0.13643211240948733,0.13394717695733077,-0.455082653166446,0.1600724970744734,
0.3781075563414014,-0.4502732584553099,-0.3319906548647468,0.46229828458633193,0.014031106490340227,0.1516804557595608,-0.20312705725406724,-0.4166229149609258,-0.05303419682264505,0.20415864489597288,
0.1591349570159732,0.08860471518812951,0.47858917720247174,-0.21872744016981102,0.45187684189714244,0.39727777540685005,-0.14911444837762466,0.30813862010918736,-0.2632670779566259,-0.27024953936893586,
-0.2504518363190552,0.3765743498807247,0.16629541210419835,-0.3260042227107079,-0.1531510832218068,0.47257293310200144,-0.41153030515740935,0.31035985414467737,0.4123781002174223,-0.30502476814658164,
0.036726599668854026,-0.2502566257550925,0.1254878911523436,0.20559554673494573,-0.32340672310785457,0.2732588271842481,-0.39663158148302113,0.25435988716705515,-0.1788994327518421,0.4586700216579918,
0.18220482855976872,0.08512911632703951,0.18864647150317188,-0.4893446645992059,-0.1702414392205529,-0.18403047716619383,0.3067957041858736,-0.09587295676526301,0.35096160727029463,-0.2927855865635281,
0.40777388924648866,-0.34797421437600834,-0.07284362050470727,-0.27654888999719657,-0.1468682749867236,0.11735084671092237,-0.10422171390865677,-0.4190734776359323,0.15750279502622974,0.13555905313277733,
0.14802009303025407,0.31016196911222976,0.007540579517126781,-0.4201761103072809,-0.17890763313302344,0.0443054782566896,-0.33448192009436933,-0.027672151539238563,0.23165656959565542,-0.372956295510193,
0.04444465865563973,-0.0976488140977562,-0.188150338746857,-0.0049844605147420715,-0.39070854141002076,-0.5274136629459255,-0.29331453391322,-0.11054462890745785,-0.2501069872760061,-0.046745483620796766,
-0.16047520674851912,0.11134869197063947,0.44845566225252853,-0.13828088740573427,0.07050386935476716,-0.3197174038180929,0.413072463504988,-0.5096887753365493,-0.2391009521353029,0.30278080205611035,
-0.4361058084495805,0.4724146717242945,0.4256183068064053,0.43369641642613577,0.3233712805246577,-0.41853561503516784,-0.34999843906949474,-0.274068032517736,-0.36266132227704034,0.2867384212134251,
0.395968676549927,-0.07966992264237228,-0.08548841932898743,-0.4226340680903561,-0.4875551927168258,0.3587717395610316,-0.053750410258431226,0.2875518201204081,-0.2524071990889519,0.17743593986244965,
0.03957103966149304,-0.467520695969759,6.614600244740781E-4,-0.36764311586641657,-0.3960817958513726,-0.13891842798532308,0.07805831095173145,-0.013532520094404695,-0.13114181682123377,0.35307308982099045,
-0.1801874957167087,-0.09971277022308793,-0.49714633966806693,-0.06682131151563153,0.27473732123532135,-0.11060645885976508,0.18062789138962762,-0.26159335690829216,-0.17343948612501126,0.08185597960508824,
0.3092415716959011,-0.23542949322543993,0.3408856302205153,-0.37701489341296957,0.20713432151448513,0.06810598257858068,-0.07779892633095588,-0.36515645248733186,-0.014999365057403574,-0.04112955569594346,
0.27706334993362175,-0.4227758647470222,-0.30819648908529895,-0.06587864713074947,0.14229488610050023,0.3859377804244363,-0.16681371145223722,-0.3840612399892238,0.10462486582209828,-0.09344579732200121,
0.213508866216502,-0.08544913395341819,0.47594338868619057,-0.012718112511465183,-0.24888983245578303,-0.13199426789733373,0.19454876960965056,-0.41936980513626865,0.2592149052272683,0.31079053918746985,
0.2106362352600457,0.19741291492879287,0.12769234007879982,0.4321795066446833,-0.19343109796614666,-0.1342726934933809,0.3511677202710827,-0.09411834484338877,0.06731458347870212,-0.411805470902028,
0.08616869003533155,-0.12923549149307398,0.31360362646647155,-0.4631935846732267,0.08993988067026737,0.17760136053945413,-0.1718544317903537,-0.06319771251232285,0.30636813939157326,0.06687631666253749,
-0.249298827770262,-0.018792374005725053,0.3457571012506268,-0.15521454787235095,-0.340768345117652,-0.37112846928386223,-0.19851846844219526,0.14757979413776282,0.377020603644027,0.014814417660192708,
-0.44219918929086766,0.11781721306223639,0.1462608239091276,0.17123069768200852,-0.07565390245111364,0.21794955461599178,0.037266273882362456,-0.023148427204697893,0.2066338881330532,-0.21793538381460464,
0.12277713429809384,0.41715127894359655,0.07637959035365025,0.4477196622909993,0.04457136058185672,0.37271280984012345,-0.062222394627999805,0.33527499498287133,-0.47063853711833864,-0.43399042708979435,
-0.15492481272830436,-0.03538442337092051,0.38383833033879994,-0.20961692863896444,0.0787071325858259,-0.1849857842649845,-0.18555194511133905,-0.053440788517090665,-0.23405134252578003,0.21477366537466208,
-0.05052288530575692,-0.08005478309643739,-0.26233063198139284,0.08888253710720208,0.41303800444627,0.2107701737661171,-0.20968413917371792,0.2082979937791561,-0.3589041621035311,0.22585366414535663,
-0.3331277685685894,0.04575309845814171,-0.451588705254669,-0.2757539839612009,-0.2649131290138301,-0.4040911306994785,0.44303113004537936,-0.4162124013672432,-0.2140852628359432,0.2966256673995273,
0.25937255459597236,-0.18661005834991173,-0.16938698238964559,-0.24316550485408736,0.2955982505858749,-0.2546272587394473,-0.2162211394922843,-0.3789691834741799,0.12419482614260055,-0.1387371101243967,
-0.36811428854363665,0.42863500637407337,0.33416100700121004,0.2164708479828824,-0.21540688503264993,0.35501380518082915,-0.2173510802225242,0.10112478951258799,-0.46311296630387644,-0.07174730161883287,
0.030243892614037756,-0.24510494731177004,0.31147140115317157,-0.45106035246718695,0.3283955986379378,-0.4417538092935337,-0.01083193117275818,-0.009482507874731382,0.013894770084407013,-0.31543307891646866,
